filenames,embedding_0,embedding_1,embedding_2,embedding_3,embedding_4,embedding_5,embedding_6,embedding_7,embedding_8,embedding_9,embedding_10,embedding_11,embedding_12,embedding_13,embedding_14,embedding_15,embedding_16,embedding_17,embedding_18,embedding_19,embedding_20,embedding_21,embedding_22,embedding_23,embedding_24,embedding_25,embedding_26,embedding_27,embedding_28,embedding_29,embedding_30,embedding_31,labels
cats/train/cats_00001.jpg,-1.6322563,-0.14814737,-1.233281,0.51494884,1.5463606,-0.2167688,2.1855779,0.48223493,-0.85087633,0.36577746,-0.5532468,-0.55323195,-0.7417836,-0.11210902,0.7526347,-0.6906374,0.15880635,-1.7701064,-2.9593527,-0.0209473,-2.1112592,3.0493271,-2.1604478,-0.004963413,2.326263,0.38450545,0.41496372,-0.50791025,-0.41426888,-1.7842332,-1.1924411,1.3063635,0
cats/train/cats_00002.jpg,1.5129288,-1.04355,-2.092675,1.0303373,0.91127586,1.7006425,2.5702493,3.4172623,0.008351356,-0.42823005,-1.5389547,-0.36864018,-2.4881127,2.142393,-3.5562284,0.25542098,1.8941042,1.616347,-0.66038233,0.45311642,1.5816586,-1.5409144,-3.7540836,0.99943465,0.17186432,-2.1057694,0.4718138,-3.4740093,-2.0126011,-0.9088211,1.6935246,2.6731536,0
cats/train/cats_00003.jpg,1.1866399,-1.1409423,-3.0446258,1.7731612,1.8457854,0.36667773,2.696049,1.431806,0.03912708,-0.08759981,-1.1136522,1.2849592,-2.6358066,0.70762986,-1.446009,-0.5239818,1.2788161,3.6718376,0.889311,-1.2612306,-0.1917724,0.6463129,-3.8060324,0.9083082,0.5045306,-1.4551147,-0.25244722,-2.2380428,-1.6249737,-1.4157919,-3.220739,0.15971524,0
cats/train/cats_00004.jpg,3.2244775,-1.5859052,-1.2453152,1.8423432,1.8966988,1.0307734,0.32767418,-0.806021,-0.09230694,1.445326,1.8036941,1.3526458,0.63379395,1.81524,-2.7871668,0.55210364,2.0644765,1.4682971,-1.6387221,0.41274232,2.1123013,-0.24694079,-0.40013292,2.1944213,-1.6737243,-2.219198,0.5544635,-1.854413,-5.3576345,1.7986258,2.4156847,3.2141023,0
cats/train/cats_00005.jpg,4.146334,-0.74129045,-1.9478896,2.926786,-0.6956424,0.8120661,-1.1162776,-0.3016831,-0.58757997,0.7651101,-0.049085617,3.1625593,-0.08909464,1.9789494,-1.8618052,-0.35872692,3.2947626,1.8918052,-1.748359,0.9167884,2.2501793,-1.0388764,-0.918861,2.0710235,-2.8327904,-1.68187,0.74809986,-2.8440719,-3.107825,0.05239767,1.7131715,3.2455988,0
cats/train/cats_00006.jpg,1.2328169,-0.42124906,0.32864022,0.74679625,0.74567235,0.975504,2.6765254,-0.25681573,-0.09800729,-1.0547719,1.1228703,-0.53889185,-2.0498478,1.8322086,-2.5603967,-0.06634116,2.3872924,-1.2381723,-1.8983724,-0.82220465,-0.59443307,1.0669812,-2.738612,0.28976732,1.069766,1.3905776,0.22942781,-2.4672635,-3.4445765,-0.28829014,-1.34462,0.7428614,0
cats/train/cats_00007.jpg,1.6180604,0.7571269,-0.41793436,0.4738477,0.90961784,0.63441956,1.7574712,-0.9142511,0.35721093,-0.5491914,-0.21472014,-0.095958814,-0.6642655,-0.63227373,-0.76250786,0.17404649,1.1097099,-0.56190443,-1.1509356,0.49215922,0.73560315,-0.4701698,-0.7048666,1.1753224,0.5712487,0.5067448,0.5780341,-1.1919233,-1.6790316,0.8590476,0.34881258,0.8169392,0
cats/train/cats_00008.jpg,2.7241297,-1.9091526,-0.91991967,1.9784557,1.575409,2.0856004,2.2622871,-2.408276,-0.1661322,0.37055165,1.7555132,1.4031152,-1.8949782,1.2122315,-3.2720044,0.2979508,1.553657,-1.0075997,-2.3963478,-0.33213544,1.7020189,1.6458083,-1.2378756,1.6065131,-0.020026265,-0.4266233,0.18306209,-2.84329,-5.3006754,2.8669229,2.3861887,2.3668396,0
cats/train/cats_00009.jpg,1.2182957,-0.33004057,0.9382989,-0.26858422,0.67904305,0.9112859,1.6842706,-2.9097488,-1.7626295,0.5705023,3.0115888,0.22478826,-0.9986461,0.8815911,-0.8961915,-0.0001445245,2.2992396,-1.5271703,-3.1578407,0.012930281,-0.6403295,1.5021728,-1.9999989,0.7914786,0.26686025,2.9856968,-1.5373544,-1.8305697,-4.4242196,-0.07840473,-1.4598197,0.6497646,0
cats/train/cats_00010.jpg,2.1326284,-1.2326987,-1.2692813,0.69073915,1.3975092,1.7051508,2.7987723,-2.1731086,-1.3050517,0.47530815,2.7124102,1.7647766,-1.9313033,2.2075279,-2.0013924,0.080582604,2.3222039,-0.064318866,-1.5790339,0.18417668,0.4084633,1.0452921,-2.6116974,-0.100795254,-0.13763511,0.87319946,-1.2647808,-3.0690374,-3.5598207,-1.194106,-1.367494,1.1953838,0
cats/train/cats_00011.jpg,0.9288538,0.21071807,-0.0037843185,-0.62084854,1.6354629,1.4293282,0.73198485,-2.244522,-2.0048497,2.2310016,3.8679025,-0.4088629,1.9922704,0.8168264,-0.026680414,0.14145276,2.1990275,-0.26050767,-2.134392,1.1746953,0.43246362,-0.15487954,-0.62487864,0.7196844,-1.1302131,1.3413105,-2.0284886,-0.4584696,-3.7971106,-1.1020112,-0.24998823,1.9420037,0
cats/train/cats_00012.jpg,-0.042489316,-1.9184308,-2.6685925,0.2794607,2.861812,3.1318107,3.920538,-0.35940367,-0.9688103,1.2908866,1.2759128,0.08206364,-1.687345,1.82383,-1.805947,-1.33459,1.2788925,-0.28839698,-2.38095,0.84848577,-0.039765716,2.2467027,-3.427421,-0.18373051,0.71381915,-0.27728224,-1.5373284,-2.7354324,-1.9030418,-2.3044028,0.16438356,2.743494,0
cats/train/cats_00013.jpg,0.6853269,-1.7727991,-2.33428,1.2488773,3.2105873,2.0447884,2.5523465,0.6295008,-1.2713369,1.5726118,2.46353,-0.27033806,0.29710895,1.8767574,-2.0937355,0.05389711,0.24461375,1.4355655,-0.020158976,-0.31079292,2.3671415,0.5801623,-2.0687256,0.23182423,-0.49119085,-2.5789077,-0.676779,-1.1197823,-3.1116982,-0.2014508,0.8112672,3.197131,0
cats/train/cats_00014.jpg,1.3584849,-0.359419,-0.840764,0.2406821,2.8893926,2.123103,1.7118589,-2.3452039,-1.480278,2.0219076,4.669345,-0.83223075,2.0975869,1.554796,-0.7244106,-0.5106921,1.7491257,-0.15297335,-0.692992,0.4457257,2.4381223,-0.011312772,-0.3622534,0.5018674,-1.6274759,-1.0588192,-0.70707685,0.3156242,-4.151559,-0.13179019,1.0919825,2.971065,0
cats/train/cats_00015.jpg,3.2779005,0.21987338,-1.157718,2.508114,-0.29534298,-0.015783682,1.0109336,0.61310107,-0.3174868,-1.2475824,-0.9040936,3.3448217,-2.4974074,0.9236472,-2.355301,2.1283576,1.213598,1.4593952,-0.02216617,-0.38864064,2.7464483,-1.2203687,-2.6329448,0.66020876,-0.286588,-1.594713,-0.49486563,-3.2995448,-2.0607443,0.9255684,-0.7271807,1.1076434,0
cats/train/cats_00016.jpg,2.0439703,-0.5462024,-1.5239904,-0.68073153,1.6784266,1.9138559,2.8985555,-2.358802,-1.5598991,0.71744597,3.7344096,-0.2228314,-1.5197351,1.3887348,-2.3081772,-0.38614786,3.042501,0.43979457,-1.281732,-0.06573376,0.7416629,0.22758439,-2.8576732,0.5728143,-0.983979,0.88100946,-1.3556168,-1.7259235,-4.2467227,-1.176094,-1.4447719,1.5138098,0
cats/train/cats_00017.jpg,2.5557504,-1.9596146,-2.7717316,1.2146083,2.1040316,2.1189451,2.5190825,0.65576774,-0.5930132,0.9800293,1.080306,1.3749406,-1.7415998,2.0568545,-3.6676822,0.7208141,1.4023684,2.2679698,-0.5990127,0.68279785,2.0807567,-0.5032983,-1.6502763,0.9216546,-0.6249513,-1.7356082,-0.2699615,-3.3402557,-3.7184772,0.5727769,2.224913,2.9493682,0
cats/train/cats_00018.jpg,0.47266605,-0.87024546,0.83051217,0.98505354,0.39058793,0.47618368,0.0830801,1.9438335,-0.41639763,-0.41348428,0.14905111,-0.2211736,-1.1709857,2.3074965,-1.402273,0.21119326,1.2559357,0.464348,-0.4912291,-0.07984329,0.81393206,-0.64236134,-1.3146005,0.08959214,-0.26728356,-0.43578836,0.27205247,-1.7510574,-2.5439582,0.6632695,0.6535878,1.242707,0
cats/train/cats_00019.jpg,0.82144815,-2.316847,-2.1257255,0.38648129,3.0122137,3.087909,3.4949715,-3.8506606,-1.2163712,2.309709,4.083522,-0.600901,-0.5479623,0.96513605,-2.2439814,-1.1528425,1.9714003,-1.0462314,-2.5387323,0.60571015,0.76546735,3.0540235,-0.28553593,1.1240728,-0.15220618,0.5474998,-0.86467683,-1.6060368,-5.619375,2.2607362,3.052346,2.578762,0
cats/train/cats_00020.jpg,1.3196714,0.7710662,2.1000934,-0.13628428,0.43613696,0.80657274,-0.10312797,-1.7178737,-1.7775792,0.8503574,3.4441497,-0.82914805,1.3681798,0.733482,-0.590657,1.08546,1.8940611,-1.8643367,-2.8059263,0.11764981,0.895452,-0.88065284,-1.0298742,1.4472575,-0.6162049,1.6364992,-1.15356,-0.39320987,-5.237296,0.5268717,0.20480514,2.0296173,0
cats/train/cats_00021.jpg,0.0956189,-1.2150998,1.4802049,0.7926268,1.2065533,0.15286013,0.0854717,0.7337663,0.7785015,0.24783404,-1.0795407,-0.5685352,-0.009610089,1.067647,-0.5323708,0.027957551,0.40555868,-1.1514152,-2.581409,0.2091222,-0.114690006,0.53703475,-1.2358985,1.65432,1.1906539,-0.97528315,0.9243201,-1.1175233,-2.863718,1.4176756,1.8140814,0.9404565,0
cats/train/cats_00022.jpg,1.0349468,-0.7643363,-2.4805484,0.9636272,0.9184179,1.1389241,4.4683604,1.148232,0.5701427,-1.3798796,-1.2155968,-0.43394205,-3.9527557,1.3613114,-2.7326667,-1.5251553,2.6923356,2.061976,0.85463876,-2.007279,-1.2819209,1.1469666,-3.9925985,1.114047,1.6653486,0.326863,1.0000334,-2.4912908,-1.816975,-1.9697063,-2.4146311,-0.6220406,0
cats/train/cats_00023.jpg,-0.3220177,-0.28018093,-1.2467724,0.74258673,3.2531714,1.672719,2.297914,-0.7434644,-1.027539,1.9001541,2.395657,-0.16903666,1.740837,0.3586713,0.46449164,0.22466858,-0.5230286,-0.8474024,-0.9559784,1.2739474,1.278624,0.5790009,-1.2722886,-0.87139267,0.55804676,-1.2183127,-1.8217103,-0.33984557,-0.81518126,-1.306126,-0.7023453,2.3681974,0
cats/train/cats_00024.jpg,-1.23158,-0.75173223,-0.65905523,-0.30967677,1.2663151,0.8124241,1.0342447,2.8734887,-2.1644926,-0.1811102,-0.14652885,-2.2501223,-2.371274,1.1610602,0.015456781,-0.7592014,0.79312086,1.4457204,-0.36619547,-0.25533652,1.590628,-0.26483226,-3.7433825,-0.03529722,-1.0422314,-0.8220672,-0.29053134,-0.8833652,-1.6025652,0.12797534,0.15465406,1.6425291,0
cats/train/cats_00025.jpg,1.3479673,1.0895172,-0.8569409,-0.5237976,-0.07808004,-0.090962306,2.4751716,0.89282954,-0.15700208,-1.0368569,-0.41363966,-1.5734473,-2.6069248,-0.06076606,-1.1698312,-1.2815514,3.4496408,3.2703075,1.5759585,-1.9528178,-1.2263191,-1.5018637,-3.7973344,2.095817,0.17142369,1.6484525,0.10820235,-0.74280226,-2.3289304,-2.389956,-4.2840886,-1.4644612,0
cats/train/cats_00026.jpg,0.4378589,-1.575554,-0.7334979,0.69693553,1.6851343,1.3700669,0.841748,0.36759844,-0.82187885,1.4776567,1.146977,0.08416933,0.051424082,1.1918976,-1.4768951,0.20112404,0.3694204,0.49719647,-1.7203423,0.32217166,0.37227187,1.0428028,-1.3942871,0.5087193,-0.24664758,-0.54594666,-0.8908676,-1.3366399,-2.4878352,-0.013583243,0.8037922,2.0794373,0
cats/train/cats_00027.jpg,1.2563436,1.4253461,1.8621151,-0.016428024,1.0041653,-0.33524162,0.9216776,-1.1306984,-1.3597736,-0.33319378,3.0304332,-0.5374403,0.26505503,0.394615,-0.85557914,1.8062888,1.4275031,-1.5997884,-1.9493028,0.15845445,1.3920594,-0.5167459,-1.2561741,0.03549236,0.092740834,1.2661937,-1.0938497,-0.7692459,-3.8617017,1.1911169,-1.3531268,1.403603,0
cats/train/cats_00028.jpg,3.9425852,0.31806427,-1.7721467,2.6265366,1.2230898,0.0046671033,1.4155275,-0.12245774,-0.47178382,-0.39370823,1.0232304,2.6463058,-1.1993608,0.5873962,-2.2131724,1.539846,1.5235308,2.5601506,0.9766363,-0.33458993,3.335569,-2.0109625,-2.5444174,1.0139536,-1.3361616,-2.2602808,-0.5678905,-2.289611,-3.2209523,0.4449847,-2.179434,2.103043,0
cats/train/cats_00029.jpg,0.77960163,0.13403246,-0.81161404,1.4014795,1.8916794,0.29089856,2.1005957,-0.06100864,-0.23541859,0.43178782,1.296169,0.5572996,0.15277293,0.6280076,-0.78747374,0.7271278,0.9276735,-0.3053915,-1.1844625,0.815318,-0.10246347,0.4899801,-0.9978192,-0.5490867,0.91085905,0.12930344,-0.648041,-1.7538652,-1.8992329,-0.37337488,-1.5317976,1.4920354,0
cats/train/cats_00030.jpg,0.6945421,-1.2612126,-2.9447057,0.35537624,2.1678784,1.4358076,2.8299313,1.3068931,-0.33846676,0.53072095,0.3450032,-0.58190554,-1.705989,1.784313,-1.845367,-1.7736915,2.4642494,2.6094193,-0.3950721,-0.33107787,-0.92900276,0.7803444,-3.2236066,0.8174652,-0.09582724,-0.40814185,0.14003623,-1.7825642,-2.1110725,-2.813048,-1.9113512,1.5785705,0
cats/train/cats_00031.jpg,0.58335775,-1.4375935,-0.38812834,1.6716477,1.8970988,0.8147493,0.42046034,-0.06983595,0.2674846,1.3507488,0.098664574,0.2663828,0.09528771,0.21573119,-0.7460653,-0.2824781,0.22132179,0.073248774,-2.4665914,-0.13719307,-0.24419579,1.7471265,-1.6117219,1.4534284,0.49719805,-0.93446815,-0.29172277,-1.0346087,-2.6068177,0.91259265,0.19652617,1.5150399,0
cats/train/cats_00032.jpg,0.7434767,-3.1960247,-2.9944968,2.5424268,2.06491,2.0934787,0.7432189,3.4925,-1.2942533,2.1750946,-0.80074084,1.3409686,-1.1066523,2.4397655,-2.4034178,0.18297799,0.53310525,4.9626017,0.28903717,-0.66286,1.2730668,0.4327139,-2.0744586,1.7465122,-0.97616935,-2.4977372,-0.65007,-2.8431835,-3.6554384,0.36382765,2.4783585,2.6676884,0
cats/train/cats_00033.jpg,2.6638842,-2.3503017,-2.7114503,1.7795675,2.9662268,2.5662575,2.6001458,-2.6559005,-1.2315859,2.5245671,4.4333906,1.7802575,0.27387023,2.1671124,-3.4892478,0.6137567,2.0323515,0.82240593,-1.5535041,-0.15927632,1.2688397,1.8874242,-0.83665407,1.1634562,-0.9327427,-1.201845,-1.1130189,-2.2524576,-6.1668777,0.5051934,1.4399415,3.3279545,0
cats/train/cats_00034.jpg,-1.1004959,-0.96217096,-0.13671136,0.7444024,2.088157,0.5228611,1.917891,0.5352458,-0.27281654,0.87140673,-0.2980333,-0.13179421,1.1318635,1.4179631,0.6290497,0.15851226,-0.68504405,-1.7534804,-1.6028985,1.7468945,1.8903089,0.079925895,-2.3575573,-0.14240459,1.79453,-2.896579,-0.7074635,-1.3362781,-0.3924071,-0.45315018,1.2845907,1.6835061,0
cats/train/cats_00035.jpg,2.492074,-0.16532347,-0.60436684,2.1744206,-0.53475744,0.61748797,1.7570438,0.051134612,-1.2429816,-1.942261,0.23525313,3.193587,-3.540604,2.3740282,-2.0623004,1.0891359,1.3787358,0.2630211,0.7548041,-1.0220006,3.305561,-0.67060703,-3.034233,-0.16461387,-0.23751882,-1.2910855,-0.34905928,-3.2070937,-2.0609026,-0.0157482,-0.5765151,1.2733554,0
cats/train/cats_00036.jpg,-0.7301731,-1.5348616,-1.4408807,-0.70158935,1.5980942,2.0366662,2.1296287,0.550277,-0.85261923,1.7180362,0.16247584,-0.55933523,-0.6925626,0.960796,-0.5296056,-0.91092026,0.12208155,0.15040322,-1.599611,0.90375483,-0.83590436,0.7324083,-1.6907526,1.3201482,1.2020869,0.101176165,-0.67316747,-1.2412676,-1.635876,-2.2348785,1.9751221,1.8938245,0
cats/train/cats_00037.jpg,-0.25471413,-0.03310661,-0.3440511,-0.05394467,1.2629747,-0.7476372,0.78640795,0.67563725,-0.22229406,0.5963112,-0.21732765,0.3094757,-1.2660673,-0.38195315,0.87427485,-0.4156359,0.41442022,2.4400246,0.41093755,-0.95663387,-2.0163221,0.20973368,-1.3955562,1.2190793,1.2266144,0.74798924,-0.43093562,-0.1818228,-1.5597088,-1.3786802,-2.8149772,-1.0321394,0
cats/train/cats_00038.jpg,-0.8928958,-1.060585,-0.039823696,0.2845906,1.0784168,1.1218907,0.16064158,1.0506439,-0.8808918,0.8411082,-0.032265745,-2.2874744,-0.66714543,0.45655346,-0.3210088,-1.7412764,0.8823679,0.009851679,-1.9452577,-0.27958918,0.78843224,1.4402614,-1.9545907,1.3414308,-0.69027704,-0.5881162,0.24426247,0.14553435,-1.984852,1.1436586,1.9190432,2.0289981,0
cats/train/cats_00039.jpg,1.6839191,-0.21947591,-1.623069,1.9084778,-0.479019,1.9177934,2.9499261,0.41837457,-0.20678355,-0.8038219,-0.7825532,1.2738411,-1.7393055,0.8635514,-2.8195128,1.12627,0.8069701,-0.85916734,-0.7708484,-0.2676201,0.8144574,0.19637921,-2.0266619,0.5642067,1.3582001,0.25986075,-0.19122289,-3.169503,-1.3391529,-0.45351753,1.1060704,1.4019226,0
cats/train/cats_00040.jpg,-0.580034,-0.7734067,-0.28377795,-1.0869806,1.4122669,2.008266,2.4582179,1.0085676,-0.8343612,0.023534711,0.982319,-2.909003,-1.3302563,1.4537303,-1.3336926,-1.251672,1.3900814,-0.5731269,-0.8202629,-0.16864468,-0.08926949,0.120356396,-2.4098685,0.23212364,0.19886479,0.5731805,0.2821787,-0.67944324,-1.74301,-1.3446995,0.7603698,1.3709676,0
cats/train/cats_00041.jpg,-0.7496684,-0.20192799,0.29175365,-0.7908827,1.5521666,1.1710038,2.562544,-0.1698195,-1.2083881,0.20224223,1.4915884,-2.3319933,-0.5943171,0.904732,-0.5361062,-1.1053842,1.7120371,-1.4996107,-2.7973819,0.053637855,-1.3165665,1.596621,-2.881729,0.08710804,0.88378686,2.1718493,-0.66651034,-0.9447669,-2.3667324,-1.6589878,-1.7209442,1.2669712,0
cats/train/cats_00042.jpg,0.02320049,0.6440175,-2.1956155,-0.8735133,1.7118615,0.8312233,4.534544,-0.8440748,0.3142983,-1.7785176,0.81058,-2.532297,-2.2931926,1.5246689,-0.7544077,-3.8142872,3.7608008,-0.97260106,-0.54902256,-0.21579039,-0.8437757,1.1424029,-2.737015,-0.23312312,0.6755246,0.67151177,2.2862117,-0.538567,-0.660106,-2.907733,-2.2057972,0.92264766,0
cats/train/cats_00043.jpg,0.6680055,-0.1691966,-0.7998194,0.9764291,1.7221956,1.0733724,2.3450549,1.0874828,-0.9331674,0.2871809,2.1928563,-0.5370591,-0.28271976,1.2626386,-1.9648452,0.93286896,0.43013486,0.7549625,1.0654246,-0.47329813,1.8936405,-0.9823123,-1.8676193,-0.41981012,0.10530464,-1.222014,-0.94873863,-1.0629109,-2.3633664,-0.36322471,-0.65000033,1.9581012,0
cats/train/cats_00044.jpg,2.7364101,-0.28329116,-2.7437208,0.6380116,1.1704113,1.8904552,3.3916156,-1.0685956,-0.55318713,-0.69553673,1.8431462,1.5923172,-2.4721,1.7169783,-1.9636236,-0.4562227,1.8511413,2.5374293,2.9887443,-1.3709735,2.7383432,-1.7366263,-3.6413798,0.21156532,-1.1070756,-1.9949572,-0.82095563,-1.7168081,-1.7903875,-2.3808374,-2.3674295,0.45603752,0
cats/train/cats_00045.jpg,2.016799,-0.64122725,-3.4392877,2.1219375,0.39337152,2.2447593,3.7645082,-0.93661696,0.9168767,-0.1656254,-0.8418029,0.86124283,-2.046273,-0.030872822,-3.4322553,-0.6936405,1.7399172,-0.4186921,-0.6670127,-1.1179647,-0.061531603,1.9403682,-1.82453,1.6675266,1.296336,-0.7838259,0.9784674,-2.078184,-1.335754,-0.7040704,1.2484791,1.5031028,0
cats/train/cats_00046.jpg,0.6478027,-1.2609274,-1.1269368,1.8781124,0.12655634,1.4647853,0.96198535,1.2015035,-1.710999,0.5772215,-0.4795214,1.087132,-2.4964647,0.57509184,-1.810208,0.67429,0.32404658,-0.015381038,-2.732161,-0.28836542,1.2899404,1.5297798,-4.2784195,0.7845069,-0.095060855,-0.7766247,-1.7674351,-2.6206253,-2.2448835,0.23856512,0.3467219,2.6375983,0
cats/train/cats_00047.jpg,1.6158675,-1.0094291,-0.80145943,0.9913656,1.1805763,0.4585878,0.28688046,-0.3382206,0.59283894,1.2438099,-0.32742715,1.6599934,-0.19873631,0.66695625,-1.2899789,0.43804908,1.1707491,0.30092618,-2.5764873,-0.014004782,-1.6769011,1.0927968,-0.6252237,1.9685464,0.9500694,-0.36882114,0.55100334,-1.5001181,-2.748311,-0.87798136,0.60187674,1.0876782,0
cats/train/cats_00048.jpg,1.2479833,-1.9569143,-3.6416433,1.4981369,2.1780384,1.7599317,3.4444299,0.8112828,0.7499911,0.1809914,-1.6190714,0.90502685,-1.8078519,2.2566752,-2.166641,-1.7571133,2.4563332,1.8999162,-1.4912049,0.8183437,-0.5467552,1.5118189,-1.6525724,0.8800128,0.85278565,-0.6925778,1.53653,-3.7645495,-1.6734879,-0.8017204,1.3525966,1.3936751,0
cats/train/cats_00049.jpg,0.47112885,-1.2967982,-1.6000167,1.8230408,1.2177962,0.9495791,1.7688987,0.64899236,0.8945423,0.09003229,-2.0895095,0.8015338,-0.64726275,1.1376424,-0.92871493,-0.5952913,0.7930048,-0.21097769,-1.9810864,0.5605631,0.036282025,1.5300645,-1.4117395,0.7116312,1.27432,-1.3964014,1.0983522,-2.4345453,-0.64186925,0.42848748,1.7107757,0.89151174,0
cats/train/cats_00050.jpg,-1.3422924,-0.36257628,1.1855576,2.5566678,-0.50543165,-2.6271636,-0.4809155,1.4643818,-1.5210195,-1.886786,-0.2965728,1.4151577,-2.201242,1.7712067,1.5745922,0.025063217,-0.56377816,-1.1260155,0.41249144,-1.7725645,0.507079,2.2550523,-0.8966438,-1.194755,1.0143859,-1.0117657,1.6356819,0.0047824234,-1.0197235,1.1117975,-1.6998384,0.44125348,0
cats/train/cats_00051.jpg,3.2658234,-1.1732544,-0.83372575,1.5761638,1.4444443,0.6999736,0.5457997,-1.3632145,-0.36918062,1.0067012,2.0819242,1.9866313,0.19254446,2.0285664,-2.6372826,0.7933215,2.534653,0.75371885,-2.3474858,0.57210904,1.3373682,0.010795593,-0.8249446,1.5048114,-1.0433214,-0.95264,-0.022507459,-2.595099,-5.007904,0.98310745,0.8072072,2.5092742,0
cats/train/cats_00052.jpg,0.77134466,-0.5784145,-0.918563,0.25584516,0.9128165,0.8019894,-0.07530496,1.0281327,-1.3971109,1.1588095,1.2418375,0.74598575,-0.1964771,1.5307918,-0.37161422,-0.064869426,0.8520363,1.6427757,-0.34803826,0.8532137,0.99360603,-1.1269213,-1.3617998,0.45555514,-1.1152599,-0.81922436,-0.98322815,-1.041269,-1.7411815,-1.665573,-0.014517172,2.27849,0
cats/train/cats_00053.jpg,3.0474372,1.0147909,-1.116976,0.58337575,-0.46524835,0.69173855,2.1957667,-0.13876306,0.13093194,-0.784002,-0.40972254,0.73691523,-2.096848,-0.49882293,-2.7975965,1.2890648,2.1129894,1.7449278,1.2517674,-1.1606411,1.4966438,-2.4437847,-2.25729,2.4297242,0.35510668,-0.23670332,-0.25201964,-1.8352293,-2.6604705,-0.09404355,-0.3205434,0.018148825,0
cats/train/cats_00054.jpg,0.34564275,-0.31019083,-2.550808,0.1926134,0.6177634,1.2557546,2.18194,0.7182815,0.13951667,-0.0547565,-1.7844553,-0.51584345,-1.8380445,0.2378154,-0.51155084,-2.2594762,1.8588169,1.3101678,-1.0546921,0.7020203,-0.14979571,0.39626393,-2.4635155,1.0870821,0.13395876,-0.08170879,0.5253582,-1.7267609,0.07060301,-1.3746408,0.31939417,0.9329512,0
cats/train/cats_00055.jpg,-0.07058585,-1.0039113,-2.1083732,0.7133594,0.93135154,1.1226648,1.6231245,1.7232602,-1.2195386,-0.29705873,-1.0703467,-0.9107591,-2.6883204,1.0887382,-0.32768166,-2.0618243,1.6929961,2.90134,0.8082938,-0.97917116,1.9030657,0.118960425,-4.203001,0.86771846,-1.2578422,-1.5550439,-0.08106999,-1.2645166,-0.99375373,-0.36703846,-0.5892181,0.7285381,0
cats/train/cats_00056.jpg,-1.1781118,-0.5284595,-1.2039063,-0.30102962,1.5189168,1.2650347,2.0051088,-1.1112887,-1.3363402,0.9193127,0.5549034,-1.1796434,0.40105307,0.6647954,1.1786346,-2.129252,1.2562879,-1.7640369,-3.3156245,1.729096,-0.8051357,2.1844292,-0.93355876,-0.0710828,0.6207519,1.6812347,0.030754551,-1.0491008,-0.6657438,-1.0941375,0.62514514,1.6903799,0
cats/train/cats_00057.jpg,1.782626,0.37319508,-1.9021261,1.7193485,-1.0871532,1.1926074,2.3736644,-1.8418044,0.42928237,-1.2403587,-2.2054043,2.0392888,-1.0030022,-0.56119686,-0.4293807,-0.18323056,0.26328826,-1.4152745,0.17512067,-0.13786094,2.126155,-0.16699427,-1.3007078,1.1722707,1.0668452,-0.9267083,0.8168131,-1.7559546,1.131182,-0.030709393,1.4132483,-0.080186024,0
cats/train/cats_00058.jpg,-0.683771,-0.1755116,-1.6883078,0.99898994,2.5620127,1.3532214,3.3299608,-0.8093565,-0.25857842,0.0024247747,1.1351098,-0.8522665,0.20968483,0.030471874,-0.115066454,-0.84106725,-0.75778043,-1.6802554,0.25227666,-0.6916165,1.4264514,1.9699938,-1.3789538,-0.8584672,1.0970619,-1.7108353,0.25013557,0.4155864,0.44550583,-0.68112195,-0.27319467,1.624399,0
cats/train/cats_00059.jpg,-0.98380375,0.26942253,-0.013759404,-0.6693719,1.5527399,1.5693588,3.763636,-1.2050037,-1.235015,-0.08285863,2.2030005,-2.9192605,-0.30832106,0.3750397,-0.5692698,-1.1551411,1.5298247,-2.570228,-2.2681727,-0.59108686,-1.4224008,2.065876,-2.4110792,0.08087461,1.6640114,2.7730567,-0.4062017,-0.4291256,-2.4870245,-1.439153,-1.5795329,0.9306675,0
cats/train/cats_00060.jpg,0.5125613,-1.7931286,-1.8170211,1.1365297,2.333394,1.4166453,1.23911,-0.527961,-0.12998065,2.240243,0.7441481,0.5967063,0.42484885,0.007347122,-1.008102,0.027704582,-0.42835033,0.3699255,-1.724217,0.52399194,0.28538215,1.459879,-1.256461,1.3003303,0.44728768,-1.8571681,-0.8026414,-0.8461684,-2.0795312,0.052139685,1.1711627,2.1739862,0
cats/train/cats_00061.jpg,2.4329097,0.26908445,-3.38874,0.70596266,0.29267776,0.679834,3.270274,1.3419683,0.35646942,-1.1949728,-2.3089201,1.6996856,-4.0153956,0.6431154,-1.9897883,-0.6340299,3.0555575,4.013312,1.0846546,-1.0204834,-0.6781986,-1.1441691,-4.2432294,1.6495714,0.72348857,-0.06303213,0.11590167,-3.171379,-0.97794646,-3.0939813,-3.2689898,-0.7779599,0
cats/train/cats_00062.jpg,3.4931843,0.6097105,-0.6495434,0.3625306,0.04894138,0.7437561,1.3572917,-2.6049035,-1.358383,0.4628971,3.8637433,1.636561,-0.47685593,0.9445523,-2.7598777,1.5317923,2.7849236,0.3411589,-0.31662396,-0.7298986,1.4113306,-1.1089882,-1.9154882,1.0736346,-1.2721676,0.23170277,-1.5310379,-1.2583035,-4.4193926,-1.1904758,-1.8014902,1.4855145,0
cats/train/cats_00063.jpg,1.367558,-0.031693127,-0.5134316,3.3540215,0.4260507,0.17206356,-0.9859243,0.48958835,-0.33786246,0.67246324,1.1855931,1.7396173,0.55350244,1.0028614,-0.23061764,0.076551974,0.5912581,0.10064131,-0.14930847,-0.6143522,1.3983184,0.10819462,-1.5151355,0.44061154,-1.0571288,-2.5689034,-0.3456697,-0.04188283,-1.8009553,-0.7538819,-1.4488952,2.7527626,0
cats/train/cats_00064.jpg,2.9077501,-0.5431477,-2.019078,1.0166714,0.6816662,1.2036136,2.2396755,-0.7729968,0.06851199,0.16488639,0.9395649,0.41011617,-2.265231,0.44819057,-3.537334,-0.048529148,2.8535123,1.5868886,-0.51262474,-1.0784951,0.43423447,0.10236446,-2.3767858,2.082424,-0.34691256,-0.2793206,0.15275706,-1.9119357,-3.7469006,0.12011361,-0.36326092,1.1536438,0
cats/train/cats_00065.jpg,1.3125101,-1.3914249,-1.4406581,1.1966054,1.6064801,0.712571,0.7381796,1.8541217,0.30265635,0.44172385,-1.068801,-0.5821343,-0.98228186,1.0329912,-1.9589704,-0.5687653,1.5659338,2.4121327,-0.93317854,0.32060114,1.4189961,-0.39327985,-1.5586233,1.7461798,-0.82735485,-1.8387892,1.0459268,-1.8676733,-2.7869055,1.8028548,1.9805508,1.9127246,0
cats/train/cats_00066.jpg,2.5648017,-0.30920276,-1.6191862,1.5911199,0.755832,0.56531036,1.4787446,-1.3365557,0.41943786,-0.07082147,0.57002324,1.5894929,0.3630502,1.5284796,-1.3610241,-0.37948278,1.9977666,-0.58351946,-1.4286945,0.99882317,1.6494005,-0.49084496,-1.0178195,0.61415267,-0.39997676,-1.8138232,1.0853097,-2.0878017,-1.833318,-0.37896258,0.65085506,2.084167,0
cats/train/cats_00067.jpg,1.1747322,0.018108582,-0.66110915,1.4671458,-0.34962675,0.014827669,1.1638131,2.963963,-0.8886356,-2.171421,0.10767067,0.81011146,-3.4029107,3.2950053,-2.1566935,0.31589967,2.2546306,1.8134995,2.1685405,-1.0732613,2.391581,-2.1566312,-2.459277,-0.64883614,-0.62873375,-1.7909409,0.8576356,-2.2810848,-2.2078547,-0.3774382,-0.6195196,1.3300023,0
cats/train/cats_00068.jpg,0.5891207,-1.5196079,-0.66815174,1.2712286,2.1798646,1.23769,0.70276135,1.2578944,-0.5572213,1.526874,1.1603361,-1.0596532,0.79472244,1.507401,-1.8626312,-0.23470029,1.0121858,0.3896297,-2.2537081,0.17585312,0.6480531,0.8961798,-2.018803,1.0344573,-0.5701281,-1.4402952,-0.10235152,-0.96110195,-3.2600899,-0.057988264,0.73934734,3.2389812,0
cats/train/cats_00069.jpg,1.4815354,0.65399456,-1.2880723,1.4676018,0.4667019,-0.20070669,0.93288404,-0.11503968,1.2791843,-0.79875755,-0.96657187,0.46428722,-0.9872966,-0.45007518,0.0721794,-1.3701947,1.3870344,1.6185974,1.5496923,-1.2410915,0.3127026,-0.76724017,-1.6574503,1.0814177,-0.044809606,-1.4849854,1.0282964,0.015684921,-0.12162399,-0.7978739,-2.569156,-0.5586129,0
cats/train/cats_00070.jpg,1.1014972,-2.5728445,-1.6764822,1.3260697,1.8158189,2.9167767,3.7593408,-3.7065508,0.46801952,0.6918199,0.02008697,0.7261822,-1.9230943,0.6161811,-1.6505603,-1.831167,1.6319774,-1.56511,-3.174194,-0.040830977,-0.29713392,3.51378,-0.8561313,2.1316433,1.7276038,1.0464393,0.59755987,-3.085028,-4.196063,2.7370808,3.3581638,0.39791992,0
cats/train/cats_00071.jpg,-0.34192103,0.9328896,-0.236421,0.5598522,2.7011895,0.6691991,2.5531573,-0.9154965,-1.8586518,1.1460137,3.4480703,-0.7953237,1.1195246,-0.4093801,0.42724773,0.7432326,-0.1760892,-1.3650265,-1.0224987,-0.3978734,0.15155075,1.3766645,-1.9250609,-0.8145236,0.87885284,0.5250873,-1.8864352,0.5283055,-1.8558288,-1.8133421,-3.2158043,2.0583265,0
cats/train/cats_00072.jpg,2.3034291,-1.1788108,-0.5418273,1.2543846,1.6965182,0.8373759,1.0643712,-2.0252447,0.39948538,1.0046252,1.215899,0.47380874,-0.2573791,0.37443927,-1.9419719,-0.21051857,2.2246635,-0.004792884,-2.7180746,-0.17065461,-0.36290258,1.3768319,-0.4165966,2.3203373,0.014412127,0.25374776,0.6714286,-1.6193217,-5.0312715,1.9498888,0.95548004,1.3666059,0
cats/train/cats_00073.jpg,-0.7505103,-1.6812183,-1.3260974,0.89659166,2.3188953,1.8365705,3.3485603,-0.748738,0.09446595,-0.33700085,-0.7221673,-0.5253506,-1.5156231,1.202925,-0.22441222,-1.6642953,0.32498586,-1.9178332,-2.1740866,0.7910219,1.4665592,2.2739224,-2.237343,-0.39320403,1.2151554,-1.1996142,0.5917671,-2.235263,-0.9278865,1.4699396,2.0621762,1.2991797,0
cats/train/cats_00074.jpg,3.4872434,-0.7167114,-2.8095713,2.2766564,0.218335,1.4303824,1.9390959,0.90948355,-0.5833723,-0.033698976,0.23209682,1.5457172,-2.7634196,0.9128518,-4.099615,0.7234329,2.2738943,2.9417717,0.7325767,-1.857517,2.152355,-0.94054794,-4.307953,2.0494843,-1.1510808,-2.1275306,-0.5823657,-2.4611795,-3.2939458,-0.8331093,-1.1457162,2.0454595,0
cats/train/cats_00075.jpg,2.8930652,-0.15096954,-1.5706238,1.146011,-0.26938158,1.0583351,1.7498989,-1.3752997,-0.020841181,-0.5118066,0.31976122,1.2137992,-1.5941523,1.0890228,-2.2995708,-0.62518746,3.1454,0.07813124,-1.5842919,0.76784843,0.6156841,0.061908394,-0.90005076,0.84157526,-0.5921433,0.9304918,0.6987524,-2.97406,-2.1197102,0.20606938,0.5206454,1.2500339,0
cats/train/cats_00076.jpg,1.4731295,-0.2021243,-2.7078097,1.6750687,2.2996337,0.9828876,3.6965415,0.3013243,1.0087625,-0.46431977,-0.709983,0.68742305,-0.8377469,0.8643727,-1.8058041,-0.29930806,1.334953,0.08401929,-0.8346887,0.8899334,1.173406,0.5391158,-2.5729604,-0.25223958,1.0199231,-2.0854533,0.39393362,-2.572934,-0.23429993,-0.955889,-0.8366977,1.754166,0
cats/train/cats_00077.jpg,-1.5241024,0.4236165,-0.6741347,0.647817,1.2049998,0.17603421,2.4924238,0.5347287,-1.1899185,-0.8720745,1.1665753,-0.36468256,-0.5129306,1.6670654,1.0805669,-0.70174354,-0.13093944,-1.3691667,1.4090211,-0.63406825,0.99305654,0.8798645,-1.2956611,-1.5306991,1.2060202,-1.2378675,0.46690023,0.40224782,0.39822662,-2.0728447,-0.9877899,1.0405031,0
cats/train/cats_00078.jpg,2.297266,1.5429256,-1.2794746,1.4692814,-1.2012329,-0.18097015,1.4857674,0.55110085,-0.5933454,-1.6887088,-0.58679503,2.0466402,-2.127314,0.19424324,-1.6613832,1.7518526,1.0070804,-0.11940497,0.9875167,-0.24997872,2.5348704,-1.9830533,-1.7666925,0.35145545,0.24920517,-1.3466887,0.21138577,-1.7537149,-0.5138999,-0.5809785,-0.2733456,1.4163564,0
cats/train/cats_00079.jpg,-0.68149,-2.3939054,-2.636329,1.6918073,2.6701508,1.4888405,2.3289695,0.067441136,-0.4206487,1.1839229,-0.31805885,1.3727703,-1.8260407,1.1248164,-0.3916928,-1.7455804,-0.33086532,0.053231284,-2.254833,-0.6367806,-1.2725849,4.4957237,-2.7841518,0.43106392,1.4835781,-1.2754548,-0.14237233,-1.3321917,-0.7418458,-2.0541382,-0.67728096,2.0499895,0
cats/train/cats_00080.jpg,0.3097997,-0.67108345,-0.027518854,2.1373556,1.3297647,-0.7032547,-1.2323432,1.4068412,0.95729756,0.9225026,-0.28459987,0.19923079,0.4863429,0.87219834,0.47115257,-1.5061651,1.094025,1.5790646,-0.71044314,-0.783023,-1.3503684,0.8009701,-0.5890016,1.1210476,-0.0819677,-1.3965255,1.1391474,0.22270697,-1.7262826,-0.34081203,-1.4599493,0.83868486,0
cats/train/cats_00081.jpg,0.37638345,0.38328505,-1.8671422,0.74437666,1.7408816,1.1598045,2.929148,-0.37646562,0.87822527,-0.4943394,-0.0053737164,0.9636031,-1.120927,0.38546678,0.906693,-1.3231034,0.25677708,1.2174264,2.4651046,-1.0342865,-0.051857434,-0.5138483,-2.2861428,-0.2915772,1.070438,-1.4858489,-0.18711719,-0.36408404,0.79246956,-3.196404,-3.0787332,-0.84678185,0
cats/train/cats_00082.jpg,1.1188152,-0.038955413,-1.7698846,0.2321075,0.86102104,0.7600286,1.2070742,0.25797954,-0.29201698,0.123283036,0.32370278,-0.28286862,-0.9690301,0.07594164,-0.38718677,-1.3062401,1.0379468,2.6208832,2.0371358,-1.1763123,1.3684453,-1.1949714,-2.3434045,1.3339452,-1.0504966,-1.5202384,-0.040105145,0.15306427,-0.6589714,-1.6202176,-1.4628612,0.43694186,0
cats/train/cats_00083.jpg,1.2297032,-2.0138135,-2.2951794,1.8826681,1.544566,2.3067625,0.49713707,0.23579004,-2.127964,2.1552103,1.2068622,0.9409826,-0.76948106,1.162265,-1.6619908,-0.35858756,1.1206551,0.79438996,-3.1619785,0.33321187,1.7261226,1.722046,-3.591443,1.2622948,-1.7492179,-1.6248835,-1.6337502,-2.0149748,-3.2584743,-0.39583597,0.9369661,4.207709,0
cats/train/cats_00084.jpg,3.0286844,1.4325776,-1.1354673,0.35152692,0.23958825,0.41318744,3.2230484,-0.41012883,0.6729824,-2.6079988,0.0021249875,-0.14166623,-3.0551524,0.5934495,-2.2273378,-0.39073536,3.1079552,1.5801097,2.1715024,-1.6807007,2.21982,-2.5381453,-4.0877905,0.9461142,-0.2903818,-0.9179659,0.62383896,-1.5437249,-1.72088,-1.0065347,-3.3878565,-0.6955194,0
cats/train/cats_00085.jpg,1.1097603,-0.75122404,-0.7852899,2.307033,2.052436,-0.6295583,0.43313178,1.0098039,-1.0011849,1.2904334,1.2725914,2.8350685,-0.04442011,1.5303334,-0.5748249,2.2122312,0.43693748,1.8301439,-0.5521305,0.94943964,0.17205581,-0.23616314,-0.0886839,-0.38208684,0.38026077,-0.7632695,-1.0534023,-2.3958733,-3.441264,0.40825358,-1.0417976,1.7615596,0
cats/train/cats_00086.jpg,3.521062,0.7658992,-0.93398887,0.6014382,-1.5425525,0.7098627,2.848232,-1.0623051,-0.23567371,-2.3186142,0.20038965,0.65354115,-4.444296,1.3329799,-3.2598774,-0.6233821,4.790051,1.7686828,0.9225193,-1.970709,0.3199937,-1.0319062,-3.4931242,1.5230774,-0.39145172,2.0896983,0.4804101,-2.9070137,-3.1845942,-0.7016509,-2.7157044,-1.3674841,0
cats/train/cats_00087.jpg,-0.15617524,-0.30089203,0.69853866,-0.5707752,0.5541576,1.43165,2.3242774,-0.41345292,-0.3032626,-0.16579679,0.7310627,-2.3834963,-1.2143599,0.85698575,-1.1805692,-1.6576276,2.5633392,-0.6687268,-2.0956352,-1.5052936,-2.5971658,1.8288785,-3.145799,1.19665,1.0336363,2.9995437,-0.24585389,-0.8604983,-2.7545087,-1.835237,-2.2721868,-0.5148518,0
cats/train/cats_00088.jpg,3.0937366,-1.708135,-1.6282885,3.9947526,2.1526766,1.0053289,0.14530815,0.48637995,0.41514283,1.7533239,-0.06325709,2.7758794,0.19000635,0.12893462,-2.6204145,1.7771306,-0.00911615,1.8801012,-1.6849147,-0.23076957,1.5820814,0.47642195,-0.7865819,2.3506494,-0.34461638,-2.7098813,-0.2180174,-2.3486173,-4.5987406,2.5744274,1.506786,3.2526877,0
cats/train/cats_00089.jpg,2.375458,-2.3910656,-1.525597,1.0219845,1.9521203,2.1941743,1.280246,-0.8657342,-0.35164863,1.9992591,1.1768707,0.82396,-0.9897554,1.3896794,-3.0580583,-0.39141735,2.197737,1.327206,-3.2118425,0.3054051,-0.19400981,1.5732569,-1.8350338,2.6555812,-0.60088295,-0.06836574,-0.5228127,-2.6769087,-5.2951813,0.5150105,1.8204936,2.6734617,0
cats/train/cats_00090.jpg,1.0454262,-2.0020049,-2.297191,2.6245208,3.7285151,1.9491411,2.190439,-1.0433365,-0.45012915,2.3209305,2.5814896,0.5636591,1.6365702,1.2804106,-1.8239924,-0.141669,0.44331086,0.0075245723,-1.9592429,0.17717321,1.4531361,2.5539653,-1.3150241,0.3428684,-0.20117177,-2.4840453,-0.72085893,-1.1964834,-3.3885899,0.5887765,0.50790495,3.5162408,0
cats/train/cats_00091.jpg,0.36183783,-0.3847398,-2.567009,-0.23403074,1.7616129,1.0780122,2.2754416,0.54149485,0.22880308,-0.115000896,0.30196396,-0.87253183,-1.5140502,1.441261,-0.74345267,-2.7107563,2.2804048,1.2716424,-0.014482394,0.051252455,-0.3089763,0.35128707,-2.6111588,0.24687633,-0.42646998,-1.1383927,0.8732907,-0.494927,-0.28330708,-3.1777797,-1.5660319,1.5456679,0
cats/train/cats_00092.jpg,0.65623975,-1.2848399,-0.75733775,0.8076517,1.6249204,0.89935523,2.3760195,0.94683796,-1.0002497,0.1636432,1.0484327,-0.12365289,-1.7379329,2.2798429,-2.0994143,0.081635356,1.9799476,0.27708504,-2.110871,1.1749343,0.10466929,0.91861886,-2.0794291,-0.32725742,0.34565794,0.74822533,-0.4663329,-3.2652493,-3.2465668,0.23238328,-0.05355509,2.0752316,0
cats/train/cats_00093.jpg,1.2782716,-1.1841397,-0.7065344,2.1941967,3.2929635,0.62914675,1.074631,0.12197864,-0.06049566,1.9155871,0.6994154,0.7810886,1.4795271,0.12440921,-1.2084608,1.4443372,-0.25197595,0.20176126,-3.01648,1.3611894,1.3805869,0.8280944,-1.1283339,1.2134207,0.4867053,-1.8534131,-0.88804173,-1.891928,-3.6967533,2.037848,0.9645157,3.1221278,0
cats/train/cats_00094.jpg,2.02977,1.2150494,-0.70360863,0.20775063,-0.7710173,-0.61682814,1.2730763,0.3382078,0.2750917,-1.3739169,-1.2785695,0.29454112,-2.46248,-0.7103525,-1.1293484,0.07944314,2.1757493,2.508721,1.6927428,-1.5682205,0.29085377,-1.9396544,-2.400961,1.9546368,0.20730795,0.28425312,0.30389792,-0.8289868,-1.4394531,-0.57607836,-2.677475,-1.3750919,0
cats/train/cats_00095.jpg,-0.40558204,-1.9343146,-0.30520856,0.4326783,1.1086378,3.1047163,5.4003463,-3.7671523,-0.45494163,-1.4052509,1.320554,-0.20997758,-3.8005161,1.4397228,-1.3858068,-1.7870401,0.31702468,-4.1040726,-1.0924773,-1.659271,0.40698916,3.5941002,-2.4795036,0.028617047,2.6354797,1.5224754,0.37166846,-2.0639458,-2.6041758,0.9430479,1.5555984,-0.26903388,0
cats/train/cats_00096.jpg,-0.89248145,-1.8999242,-2.3892438,1.1314101,2.785601,2.4187062,2.1870973,0.161818,-0.95844066,1.9802128,0.4155661,-0.79448646,-0.30326647,0.4221058,-0.5517473,-1.2225757,0.030212194,-0.5982107,-2.788134,0.90189785,0.3299554,2.6898663,-1.8855594,0.5358074,0.49815285,-1.0142978,-0.5846007,-1.1528828,-1.7262502,0.12057683,2.0210884,3.1442146,0
cats/train/cats_00097.jpg,1.8532882,0.4960505,-0.48299524,0.6246092,0.4708488,0.21131068,1.8683691,0.61337364,0.3191775,-1.4823389,0.039667174,-0.7321033,-2.2344108,0.8234235,-2.2475784,-0.41606486,2.4930494,0.29320434,-0.5053254,-0.61893225,0.6926936,-0.50776994,-2.5763903,0.6225253,-0.13591227,-0.10382907,1.0261884,-1.5113215,-1.9328681,-0.13117796,-1.3748556,0.96188635,0
cats/train/cats_00098.jpg,-1.1011202,-1.8286488,-2.0101383,1.055174,2.1826425,1.3246881,2.1365676,1.7513981,-2.2782876,0.7911029,1.5667307,-0.7003567,-1.2944049,1.9248706,-0.7557202,-0.35883462,-0.46618363,0.4408025,0.4139564,-0.4759205,2.2521403,1.0008386,-2.5508983,-0.8171823,-0.26825356,-2.6418834,-0.23130098,-0.5757977,-1.7176437,-0.36514756,0.8885214,3.0911164,0
cats/train/cats_00099.jpg,-0.66030484,-2.30674,-2.3598242,0.63042206,2.3797414,2.471694,3.7671826,1.0553949,-0.63775796,0.52772,-0.09446177,-1.0921144,-2.165037,1.857615,-1.9882373,-1.3915265,0.9679005,0.7530255,-0.9458849,-0.029321391,0.8988457,1.701817,-3.0325804,0.2976788,0.83988655,-1.017865,-0.25609145,-2.5892546,-2.2979722,0.3507954,1.8525972,1.7198101,0
cats/train/cats_00100.jpg,0.18698634,-2.7577655,-1.5532402,1.3513416,2.6337426,2.8554535,2.8467276,-0.4563969,-0.22509043,1.1983594,1.0341079,-0.68857205,-1.6974983,1.6869872,-2.2161417,-1.6897736,1.3451759,-0.4778324,-2.8696592,0.07785225,-0.5118726,3.2025728,-1.9185753,0.67351156,0.56341374,0.34031424,-0.0071141943,-2.4752853,-3.589141,1.0003455,1.728999,2.2627716,0
cats/train/cats_00101.jpg,0.95959294,-0.3303335,-1.3414934,1.7084242,1.8560301,0.31944036,1.7401906,1.072008,-0.025934024,-0.8152017,-0.19718984,0.27391008,-0.8720661,1.6107565,-0.900806,-0.4678126,0.9599541,0.034804165,-0.46120542,0.0043144077,2.4724548,0.01362896,-3.1005096,-0.3404712,-0.2160809,-3.0828886,0.7421984,-1.3980216,-0.60287446,-0.48457092,-0.9092157,2.1792283,0
cats/train/cats_00102.jpg,2.185681,-1.1345612,-1.7454929,0.84359217,1.5493913,1.4839213,2.2609682,-1.2799208,-0.77518964,0.75523925,2.3828845,1.3509065,-1.0584825,1.6159037,-2.3750157,0.31251425,1.622263,1.2759212,-0.10277495,-0.64893794,1.2313281,0.29235467,-2.286904,0.5742078,-0.51159704,-0.89448494,-1.0053008,-1.881849,-3.2325077,-0.7738896,-0.8660604,1.2563373,0
cats/train/cats_00103.jpg,-0.48162684,-0.8746563,-0.21332815,0.70909995,1.5840026,0.5537765,0.5992508,0.88993484,-0.39347243,1.0570582,0.6487357,-0.4258601,0.16784376,0.7463052,-0.115542226,-0.4468827,0.009153686,0.9362886,-0.18679926,-0.9074213,-0.23336197,0.78832257,-1.6031998,0.7421019,0.5771361,-0.9001543,-0.5785398,-0.04648553,-1.5750707,-0.8280596,-0.7657494,0.7318411,0
cats/train/cats_00104.jpg,1.2472441,-2.635152,-2.4782767,2.4849973,2.214769,2.0418632,1.4004358,1.1171356,-0.02254887,1.5159429,-0.25885963,0.38712645,-0.023798846,2.0175297,-2.5020943,-1.0991904,1.2976581,1.5557407,-2.0194454,0.07382075,1.0194699,1.982331,-1.8294593,1.531577,-0.657783,-2.2178378,0.5843875,-2.2779636,-2.914911,0.53725475,2.2592497,3.2331383,0
cats/train/cats_00105.jpg,-0.054973688,-1.815759,-1.4952699,-0.0833911,3.5198116,2.6546922,2.7474294,-1.928116,-1.2899835,2.4288924,3.3483539,-1.7691853,0.30227423,0.7788231,-1.4883217,-1.0223417,1.2976559,-0.4712656,-2.4998288,0.76657176,1.2960525,2.2011735,-1.2901471,0.7359798,-0.39989707,-0.43180683,-1.2645401,-0.7178138,-4.433747,1.570697,2.1683404,2.901125,0
cats/train/cats_00106.jpg,-0.8673814,0.12367301,-0.9209208,-1.0016524,0.2592079,0.0014884658,0.32675928,1.1964288,-0.8443628,0.84943634,-0.45765096,-1.6397306,-1.0300317,-0.6475176,1.0461277,-1.9688303,0.7836491,1.3818665,-0.5246739,-0.58758426,-2.099291,0.3289311,-2.2418048,2.0594392,0.08089862,0.68691176,0.24133809,1.1260899,-0.8831385,-3.2257905,-1.3331339,0.8999124,0
cats/train/cats_00107.jpg,2.8829038,-0.34724852,-0.48183084,2.204238,1.8039238,-0.35888684,-0.0072094686,-0.6212703,0.2440163,0.508943,1.7798166,1.272083,1.4129164,1.7528172,-0.96027356,0.029279316,1.9830852,0.8805871,-0.9439796,0.8330332,2.0629811,-0.94173485,-0.14512475,0.8021385,-1.5105555,-2.1590288,1.0781373,-1.2671888,-3.6308653,1.0387795,-0.1123635,2.5921571,0
cats/train/cats_00108.jpg,-0.27647403,-0.7627691,-1.2113831,0.3895321,1.4060102,1.1706966,2.7503078,0.356039,-0.87814844,-0.5917371,0.71086687,-0.9241914,-1.7511222,1.4418843,-1.1596705,-0.8724997,0.93845725,-1.6875803,-1.8172835,0.4443448,0.37249002,1.5425808,-2.0533094,-0.9440429,0.6030889,0.09050709,0.6231619,-1.6599101,-1.0220327,-0.50676125,0.23823865,2.1899424,0
cats/train/cats_00109.jpg,0.91842103,-0.96636486,-0.27928984,1.1578615,0.5206488,0.73897403,-0.26816854,0.9402389,-0.16288662,0.9722564,-0.24680452,-0.34558842,-0.23042157,0.2559207,-1.5019926,0.3554541,0.7773469,0.11503766,-2.1856773,0.20376289,0.08023065,0.18472336,-0.7728215,1.952135,-0.19322778,-0.60648406,0.48051533,-0.99354815,-3.2763395,1.2727358,2.1071978,2.2914555,0
cats/train/cats_00110.jpg,0.2236701,-0.019086648,-1.559353,-0.19649325,0.7545764,-0.26040512,2.8349066,0.9195849,0.12720719,-1.3145367,-0.8780097,-0.42353672,-3.6648688,0.88488895,-1.0142559,-1.3807176,2.446724,1.588455,0.1096413,-0.8328228,-1.2621989,0.33652693,-2.7307887,0.65105736,1.3098713,0.57232946,1.0325754,-1.7890923,-1.549418,-1.0996207,-1.9800909,-0.6757224,0
cats/train/cats_00111.jpg,1.5546542,-2.1611838,-2.2455423,2.326077,1.9200804,1.8120425,0.5216975,0.02349168,-0.40451884,2.4004943,0.21406619,2.0023165,0.53752565,0.8161203,-1.6260746,0.41529375,-0.009527605,1.2208015,-2.0654724,0.2704476,0.83056724,1.4103659,-1.138333,1.9258722,-0.3498006,-2.2491293,-0.58270425,-1.7131513,-3.0534706,0.19791426,2.2644002,3.095405,0
cats/train/cats_00112.jpg,2.8532126,-1.5419043,-2.4787405,1.6247201,1.6396904,1.6201739,1.8397114,-0.4699909,-0.65597975,0.86035407,1.2381215,2.4177825,-0.99488693,1.6016546,-2.3541071,0.37958306,0.9870905,2.539956,0.2370077,-0.367518,2.2570267,-0.40954965,-3.1564138,0.760461,-1.1813831,-2.2592509,-1.321264,-2.491042,-2.4309268,-1.2025971,-1.1778544,1.7937855,0
cats/train/cats_00113.jpg,3.7290423,0.036301218,-3.8182955,0.56248945,0.6690301,1.8437028,4.7983437,-1.7892629,-0.037400316,-1.1830132,1.2261146,1.6524218,-3.9451363,1.1735126,-3.6152258,-0.84105885,3.6193004,2.7239232,2.1748312,-1.7158728,1.4154494,-0.62002426,-4.2481937,1.0385993,-0.39559048,-0.67467403,-0.42988348,-2.6558127,-2.0929656,-2.680785,-3.1472995,-0.08681686,0
cats/train/cats_00114.jpg,-0.036216483,-0.5458082,0.049233742,0.01457932,2.0417736,0.792302,0.8802413,-0.06501606,-0.117493525,1.1116846,0.8688728,-1.8549901,0.4484536,0.22341967,-0.59042937,-0.76409435,1.252394,-0.77359027,-2.9019523,0.9625266,-0.32298973,1.0690702,-0.9676344,0.7970018,0.076029435,0.2923779,0.15036732,-0.50833666,-2.4106026,0.8108205,0.82680094,1.861945,0
cats/train/cats_00115.jpg,4.3356757,-1.4860666,-0.7061463,0.62041616,2.0631852,2.531918,3.5432148,-6.829538,-0.27678332,0.5627731,4.5034943,1.6846359,-1.729722,1.2379498,-3.2700057,-0.043584093,3.836367,-0.9269776,-2.1132872,-0.09655083,1.7097715,1.19447,0.7038176,2.822262,-0.37189984,1.7878547,0.21773067,-3.1350613,-8.752425,4.536069,3.2344258,0.7960985,0
cats/train/cats_00116.jpg,2.5469098,-2.1627023,-2.8909848,1.0429903,2.463116,2.409819,3.7195823,-2.05267,-0.44626042,0.775962,2.6581564,1.5775445,-1.7026669,2.8287625,-3.3926015,-0.5177064,2.6834283,0.93367326,-1.0179197,0.5254641,1.4433601,1.3997056,-1.736488,0.17997476,-0.5680476,-0.93684906,-0.38879016,-3.4600143,-4.114599,0.10010297,1.0528127,2.1251018,0
cats/train/cats_00117.jpg,-1.2783688,-0.2320865,-0.5476735,-0.29633883,1.6265281,0.18507394,1.5472181,0.25556174,-0.9789973,1.1499311,0.8021816,-2.1447425,-0.423335,0.045730613,0.15911055,-1.3275363,1.7776244,0.06842287,-2.3620672,0.31995115,-2.1278172,2.1901984,-0.712921,0.82214415,0.94915164,1.990583,0.07797155,-0.22955975,-2.7359836,0.109429374,-0.09758775,0.92864156,0
cats/train/cats_00118.jpg,2.7064843,0.2982084,-2.343384,0.7505052,0.8233998,1.0147622,3.2359877,0.25883707,-0.18626446,-0.8229666,0.930688,0.9766016,-2.220106,1.1025963,-2.7563105,0.35943663,2.2104084,2.985673,2.3752987,-1.4292696,1.4570842,-1.8218231,-3.736946,0.6932774,-0.23022798,-0.98515266,-0.89844763,-1.9956111,-1.884952,-2.3523576,-3.4357753,0.12878843,0
cats/train/cats_00119.jpg,1.7640917,-1.4463153,-1.2698188,0.7422231,1.8991297,1.6855379,1.6692783,-2.183041,0.29929087,1.3641952,1.6392871,0.23700202,-0.33322102,0.6147663,-1.9390681,-0.7911531,1.8356054,-0.4840296,-2.5603373,0.20869878,-0.34064302,1.6060681,-0.8337269,1.7440861,0.041763976,-0.18805139,0.24461792,-1.3692899,-3.8719988,0.54207593,1.2486072,1.8186064,0
cats/train/cats_00120.jpg,1.8900106,-2.0505614,-2.6543198,1.3251146,1.91343,2.0272462,2.625193,0.2663411,-1.2220957,0.64002514,0.9957284,1.6002468,-1.603264,2.0055923,-2.2279088,0.1560544,0.30274037,2.4506116,0.94682944,-0.5521925,3.2504354,-0.44783607,-3.8322294,0.5280522,-0.88299376,-2.9021819,-1.2569894,-2.5165558,-2.1258254,-0.9037128,-0.14795688,1.9015257,0
cats/train/cats_00121.jpg,3.359026,0.1921929,-1.2520169,1.0049651,0.0825609,0.9666181,1.4609863,-2.4623134,-0.8075834,0.40917608,2.7972562,1.9881587,-0.6173118,0.3531874,-2.7044978,1.4386239,1.8298243,0.6482909,0.4382122,-1.47453,1.5245153,-0.65436214,-1.9170896,1.4119154,-0.89075744,-0.6707455,-1.196676,-0.9892046,-3.6069398,-0.9060018,-1.4962515,1.0608351,0
cats/train/cats_00122.jpg,0.38470042,-1.1624429,-1.522711,0.95950514,1.9460404,1.4071605,2.5472803,1.084174,0.024925975,0.8125508,-0.17095032,-0.05203967,0.28960586,2.0727303,-1.5124551,-0.39597332,1.5205262,0.16912232,-2.1487632,1.714423,0.13942309,0.564337,-1.7584497,0.12080598,0.92348486,-0.60174274,-0.22676241,-3.0220702,-1.6378279,-0.9454673,1.0249388,2.0961728,0
cats/train/cats_00123.jpg,0.028535314,0.66211736,-0.9197204,-1.9797837,0.7347377,0.7448572,3.9505484,0.82444274,-1.1847645,-1.2600677,0.8994125,-2.8128796,-3.4770176,1.7059288,-0.99010533,-2.4541092,4.5300584,1.9411584,0.37110806,-0.78406215,-2.3943388,-0.4031972,-3.8341258,0.7028475,0.41238096,3.5165796,0.2996742,-1.4433922,-2.713129,-3.8511105,-3.9560983,-0.66658235,0
cats/train/cats_00124.jpg,0.6133773,-0.5189411,-1.9763538,1.7858723,1.1053379,0.8148519,2.1024532,1.305597,0.09852939,-0.52111125,-0.20632651,0.39051098,-0.9481615,1.3759794,-1.7130469,-0.3486919,0.58057183,0.5953531,0.8061121,-1.4352667,1.3837122,0.49715695,-2.8570921,0.19825903,0.46512133,-2.838467,0.5114298,-0.9003006,-0.4847534,-1.5380124,-0.83779883,1.5604222,0
cats/train/cats_00125.jpg,1.7444161,0.37619907,-1.2758309,-0.27679086,0.07196337,0.92208886,3.293193,0.06881385,-0.13751504,-1.5662228,-0.20864287,-0.69962627,-3.8377662,0.74183875,-2.3152254,-0.8892942,3.254666,2.165466,0.94729376,-1.4075875,0.4211229,-0.88389814,-3.920463,1.1259707,0.084319845,1.0274917,-0.081516415,-2.1910133,-2.2410316,-0.68966264,-2.220494,-1.0819252,0
cats/train/cats_00126.jpg,2.5609148,-2.4547162,-2.8059752,2.348947,1.4245129,1.8451588,1.1004114,1.5891392,-0.99874794,1.4713821,-0.2605481,2.5720124,-1.4178314,2.0195146,-3.0228808,0.8551442,0.8718733,3.370847,-0.92808366,0.28631443,1.933533,-0.087425925,-3.0984828,1.4442362,-1.1666265,-2.1783974,-1.2048252,-3.647319,-3.0413327,-0.36964625,0.95967704,2.8980298,0
cats/train/cats_00127.jpg,4.340729,-2.114474,-1.987374,3.4924722,2.3530538,1.0625476,1.0814018,-1.5931648,0.72355217,1.4149002,-0.035336964,4.222805,-0.3415603,1.2613801,-2.713783,0.9005021,1.5037397,1.2062298,-3.4083614,0.042835124,1.0955398,1.4172194,-2.8655896,2.5291214,-0.19935639,-2.6590545,-0.29241744,-3.6491952,-4.4781876,0.4006844,-0.29019594,2.5678952,0
cats/train/cats_00128.jpg,2.6991982,-0.47910827,-0.9452443,0.4693212,1.5296769,0.83997977,1.3735873,-3.1584878,-1.0900931,1.150876,4.0503135,1.2928096,0.99639344,1.9115088,-1.3842791,0.066512614,2.577894,-0.1288256,-1.2289928,1.156348,1.7164845,-0.25699684,0.25057527,0.33867374,-1.4354093,-0.16965492,-0.2300561,-1.4873259,-4.1065526,0.25675595,0.54733115,2.101743,0
cats/train/cats_00129.jpg,1.0538758,-0.76595265,-1.4489803,1.7127032,0.72899437,0.35608163,2.0427234,4.1496696,0.006020195,-1.123741,-1.8674616,0.06026069,-3.0680282,2.2718644,-2.96406,0.46500677,2.0838149,2.9107563,0.4838377,-0.6303127,0.8677708,-1.1017847,-3.3485808,0.68785745,0.44923398,-1.5361048,0.615221,-3.3012605,-2.6040053,-0.02775821,-0.12894058,1.3775451,0
cats/train/cats_00130.jpg,2.1022243,-1.1114386,-3.5851736,0.60217583,1.2949495,1.7520866,3.2917926,1.6109873,-0.3925473,-0.935756,-0.07705507,-0.0936314,-3.2711687,2.8145676,-2.8504786,-2.0180256,3.4889553,4.205196,2.0466735,-1.2005184,1.8594823,-1.240298,-4.678789,0.8312765,-1.4938926,-1.9786677,0.5486401,-2.5316474,-1.8532083,-2.5432768,-1.8569372,1.0202987,0
cats/train/cats_00131.jpg,0.036507655,-1.0226616,-0.37980413,1.4433937,1.6443435,0.3246245,0.62978464,1.8533733,0.10485089,0.9201307,-1.0569081,-0.2925712,0.3418615,0.6740283,-1.027038,0.5054676,0.22966439,-0.1992035,-2.890085,1.2188739,0.8613476,0.6231362,-2.258364,0.8528522,0.6682267,-1.9680693,-0.34624916,-1.8384678,-1.7868496,0.94191736,1.2541131,2.4920254,0
cats/train/cats_00132.jpg,1.2891067,-1.8061175,-1.7705903,0.8982561,1.4836824,1.8231847,1.7381102,1.4601434,-0.3495215,0.72420645,-0.007672135,-0.06976965,-1.7350416,2.0367727,-2.707942,-0.53248316,1.9360831,1.2345706,-2.012929,0.8530353,0.123983204,0.5689218,-1.7905875,0.93647224,-0.27311715,-0.2475481,0.36960638,-2.9395537,-2.916923,-0.03485702,1.8702348,2.5580878,0
cats/train/cats_00133.jpg,-0.21367335,-0.9375723,-1.2764754,1.2195514,0.42674384,1.3020976,1.9331105,1.6121658,-0.5075797,-1.1647096,-0.9168358,-1.1218152,-2.4656665,1.8302604,-1.2564225,-1.7515643,1.6372726,-0.978742,-1.764999,0.3652349,0.38297328,1.4764227,-1.558972,-0.39102152,0.008787245,0.32626602,1.8404539,-2.1771631,-0.92858076,0.47522482,1.7725803,2.2409139,0
cats/train/cats_00134.jpg,0.8020923,-1.8459388,-1.9589527,1.0463295,2.8505323,1.6618993,3.048697,0.4160696,-0.015114315,1.1593509,1.426158,0.37528998,-1.2380996,1.9714124,-1.8714685,-0.43137288,1.4993801,2.780016,0.8015071,-0.7200493,-0.45868522,0.40132236,-1.7544755,0.4891553,0.6728323,-0.6659062,-0.52812296,-2.2449558,-3.6125422,-0.5896379,-0.7171252,0.35447216,0
cats/train/cats_00135.jpg,3.3124251,-1.3465179,-1.9426223,3.216519,-0.09191793,1.8231782,1.1854409,-0.2579838,-0.36350822,0.46121976,-0.29847777,3.1669805,-1.2899352,1.0765204,-3.454117,1.4260737,0.68219215,0.43181774,-0.8051993,-0.8790779,2.913152,0.14497699,-2.8943205,1.9400351,-0.49196804,-2.805612,-0.64938575,-2.8399594,-2.6126099,0.21612003,1.6739366,2.766928,0
cats/train/cats_00136.jpg,0.51769924,-1.6747236,-3.1878054,0.60358727,1.8372214,2.9556072,4.1207156,-0.08417082,-0.7046781,0.70311606,1.0200009,-0.22834644,-2.026837,1.1644379,-3.1297445,-0.9115386,0.7729878,0.12425621,-0.47164625,-1.1429026,0.5285292,1.8382558,-3.3129013,0.8435889,0.8786001,-1.211083,-0.5339166,-1.604954,-1.9266528,-2.1139467,0.66033584,2.4777572,0
cats/train/cats_00137.jpg,0.7833624,-1.6232368,-1.8522433,-0.4039419,2.8841057,2.3889184,2.9679394,-0.55199534,-0.8062701,1.3050537,2.8189068,-1.0049728,-0.51779586,2.0696793,-2.2125137,-0.90855867,1.6000941,0.7413576,-0.5811381,0.177102,1.2160447,0.35733205,-2.2164125,0.2918774,-0.46929598,-1.3192112,-0.6293081,-1.2498118,-3.2382598,-1.0754806,0.6334086,2.3361278,0
cats/train/cats_00138.jpg,0.40336475,-3.0068321,-1.315945,2.441676,1.4861677,1.9241457,0.6499215,1.8412598,-1.0175916,1.2597433,-0.25482434,0.23992057,-1.7054822,2.2476897,-2.5694675,-0.4043179,0.9500309,0.76462704,-2.8103542,-0.0755626,1.3104688,2.2382383,-2.2629993,1.2456208,-0.5852321,-1.6973039,0.10090507,-2.7239892,-4.1063347,2.2555556,3.430067,3.4906583,0
cats/train/cats_00139.jpg,0.20820764,-0.88538396,-2.2514083,0.23520699,1.1321217,1.5163897,2.9808939,1.139835,-0.5825128,-0.25699103,-1.3595276,-0.556621,-3.2898705,0.5973015,-1.3995959,-1.4480065,1.9263731,1.324302,-1.9336184,-0.360078,-0.7509067,1.6242816,-4.594835,0.7856564,0.46716747,0.5102006,-0.46710992,-2.51538,-1.3441631,-1.4885452,-1.3735222,0.8288694,0
cats/train/cats_00140.jpg,2.4935057,0.82357204,-1.1041741,0.3887508,-0.080292314,0.43220243,2.5465841,0.17582738,1.4208012,-2.28538,-1.0491292,-1.3906895,-2.8392322,0.8100453,-2.101469,-2.0926754,4.057106,2.5075905,2.5788615,-2.8507385,0.8333186,-2.0263984,-3.7571988,2.2574053,-0.38215226,-0.9754108,2.0179691,-0.58777255,-1.9794867,-1.1662887,-2.7412765,-1.6090751,0
cats/train/cats_00141.jpg,0.9909055,-1.3203889,-0.24562195,1.6866292,0.29532927,2.3867147,2.5302916,-2.7687364,-0.2468694,0.0063343495,0.151993,0.43336326,-1.8269583,-0.062265344,-1.60595,-0.26511076,1.1324682,-2.739082,-3.333751,-0.24058433,-0.19400157,2.7007167,-0.9255172,1.6704711,1.5318068,2.133232,-0.017939515,-2.7374022,-3.9775577,2.9727347,2.5843413,0.7339115,0
cats/train/cats_00142.jpg,2.5094967,0.95842093,-2.074065,0.91151196,-0.22637215,-0.7042811,1.9042722,0.07423976,0.04061596,-1.1711197,-0.91762555,0.7477883,-3.1555028,-0.7136995,-1.1864606,-0.46287352,2.797924,3.4987497,1.9882203,-1.7245628,0.17646092,-1.4147868,-2.698869,2.1202755,-0.09817709,-0.00034065917,0.68720937,-1.0436387,-2.0539055,-0.64011294,-3.4521239,-1.011945,0
cats/train/cats_00143.jpg,0.16291484,-0.7171113,-1.0014079,1.1777829,1.8088905,0.63844395,1.4293625,0.9731919,-0.3798147,0.04778048,-0.3135227,-0.8906246,-0.8100537,0.6478169,-0.88714325,-0.5279977,0.98678493,-1.2251353,-3.4109404,1.6844063,0.99500805,1.2997842,-1.728105,-0.32861048,-0.037921466,-0.6347873,0.6464135,-2.1143675,-1.4501446,1.5153561,1.2573417,3.0322928,0
cats/train/cats_00144.jpg,1.146853,-0.38628626,-2.6140728,0.44356266,1.6874254,1.3138504,3.1325967,0.79285574,0.563516,-0.9127077,-0.15763831,-1.2928787,-1.9409682,1.174495,-1.9580942,-2.144905,2.3693852,1.6068285,0.6766524,-0.79248023,0.5506402,0.016479205,-3.0634964,0.49424613,-0.37058416,-1.1292329,1.2550635,-1.1548998,-0.77505046,-1.7897072,-1.5679077,1.1097615,0
cats/train/cats_00145.jpg,3.957746,-0.34237903,-1.4608454,1.2030321,-0.53983563,1.511472,3.2744396,-2.2981317,0.117240995,-1.6195009,1.0454664,2.4284844,-3.666994,1.7276258,-3.8104093,0.4375643,3.1416976,0.9743954,0.9824246,-1.7526658,1.4742647,-0.5600406,-2.5736454,1.1722397,0.03508788,0.42496222,0.029215608,-3.3689284,-3.498709,0.012139022,-1.0032748,-0.62170345,0
cats/train/cats_00146.jpg,-0.06934163,-1.0240566,-2.326193,2.4599464,1.0300872,1.1196858,2.9716547,0.575565,0.7430365,0.08331635,-2.4482245,0.5642998,0.7183766,0.7021218,-1.1449641,-0.07130197,-0.16375849,-1.5655531,-1.3563627,0.8453444,1.556574,1.7134007,-0.8500141,0.53231925,1.8697084,-2.4753995,1.173829,-2.0955966,0.2993558,0.7516767,3.3771734,1.9164428,0
cats/train/cats_00147.jpg,-0.21553789,-1.0552889,-1.2417316,1.0214971,0.568125,1.4520735,2.347702,-0.40332618,-0.1439473,-0.47869444,-0.6367174,-0.66502726,-1.5995495,0.63817716,-1.0681176,-1.5226557,0.7113857,-1.4118328,-1.4181645,-0.12362828,0.5484348,2.1551635,-1.2911931,0.47963172,0.6946137,0.05517432,0.9886807,-1.2967374,-0.9960366,0.8830261,1.9220834,1.4231641,0
cats/train/cats_00148.jpg,-0.97714525,-1.0207723,-0.58550245,1.1411139,3.4471493,0.3345857,0.46800256,0.8429401,-0.73397046,2.1783519,1.0380851,-1.4641984,1.0876931,0.33251226,0.4533512,-0.74184483,0.4456877,-0.14084637,-3.4511096,1.1651633,-0.20819917,2.4146554,-1.0367612,0.5252514,0.19733423,-0.9380574,-0.1315855,-0.13399035,-2.6418083,1.1354206,0.64191616,2.969331,0
cats/train/cats_00149.jpg,0.27378458,1.0560048,1.0611849,0.62063235,-0.7324278,0.10910394,1.6775631,1.136151,-0.33036977,-2.2988718,-0.6510749,-0.44283158,-1.3977861,1.7324566,-0.9364848,0.44015443,1.5236113,-2.0914285,-0.8390065,0.81677663,1.7617733,-0.8519704,-0.9772026,-0.5343215,0.9093509,0.5835819,0.83837163,-2.2698777,-1.0041822,0.8650985,1.4062254,1.1629003,0
cats/train/cats_00150.jpg,-0.44858035,1.6577799,1.1336689,-0.40284342,1.1819026,-0.24993521,0.6910305,1.7425733,-1.5218208,-0.01918815,0.29388127,-1.3105099,0.73258334,-0.48138052,0.5659447,1.9518733,-0.14052407,-1.3819065,-2.9723048,1.8342808,0.89267623,-1.0373579,-1.506623,-0.15684864,0.68271077,0.95670563,-1.1700646,-1.025661,-1.755893,0.34142265,0.028581485,2.5055575,0
cats/train/cats_00151.jpg,0.5892857,-2.1365478,-1.7845231,1.8606763,1.0912414,3.1624098,4.2191634,-3.239895,-0.25245535,-0.0478193,0.13457367,0.3519851,-2.5479996,0.3642094,-1.9836662,-1.4549644,1.2225492,-2.9841597,-3.6554692,-0.3723396,-0.6592691,4.6134224,-1.5462533,0.9947393,1.7971313,2.2446005,0.31512505,-3.215016,-3.2688315,2.2210574,2.3612876,1.0098103,0
cats/train/cats_00152.jpg,1.4168854,-1.6945397,-2.1217597,2.4719675,2.6801095,1.5300264,2.4817882,1.429146,-1.2100466,0.96810055,1.3251858,1.4788582,-0.53163284,2.2213266,-2.7678292,1.617087,0.04919292,0.7081486,-0.97454816,0.7104957,2.933094,0.2596388,-2.2712033,-0.3090054,-0.04020387,-2.8470817,-0.8330093,-2.9487355,-3.1235158,0.50181735,1.2865806,4.033997,0
cats/train/cats_00153.jpg,0.44636416,-0.28360206,-3.235009,-0.28427678,0.31289306,1.9437742,2.921606,1.940547,-0.4743918,-0.23452733,-1.9266207,-1.4036285,-3.297443,0.6845287,-1.3659403,-2.648483,3.0417619,3.0988717,-0.24808961,0.24151106,-0.1998461,-0.43342406,-3.6112359,1.5624576,-0.3679156,0.66684544,0.24980523,-2.3982527,-0.88151085,-1.7706654,0.3928019,0.77662605,0
cats/train/cats_00154.jpg,0.03415149,-1.0323888,-1.6590801,1.4892812,1.4475702,0.7152999,2.2974563,1.3694129,-0.38234118,-0.066662624,-0.3211555,-0.6695246,-1.8764557,0.8871502,-1.519583,-0.8356197,1.3391923,0.7826979,-1.2347779,-0.7272799,-0.5584464,2.0606775,-2.9029512,0.111291066,0.58401996,-0.09845717,0.223952,-1.8206545,-1.5664289,-0.22894242,-1.288665,1.1464679,0
cats/train/cats_00155.jpg,1.7013355,-2.2957592,-2.3705106,1.9254502,1.0428075,1.8082168,1.0957812,2.2736812,-0.4210015,0.7869546,-0.5672414,0.7080361,-1.8301737,2.3636644,-3.2247396,-0.69717205,1.9162931,2.7227976,-1.1861537,-0.46105906,0.51374054,0.7470647,-2.7307467,1.480041,-0.88227046,-1.3596528,0.27142885,-2.9135737,-2.8655727,-0.51795894,1.1199273,2.5952017,0
cats/train/cats_00156.jpg,0.34658632,-0.3021246,-1.1678796,0.969649,0.4447501,1.1903292,2.7133155,0.79075146,-0.034120463,-0.96138436,-0.09201984,-1.3746083,-2.0148354,0.98567533,-2.0928252,-1.0532001,1.6622717,-0.68001866,-0.5391866,-1.1377217,-0.17066489,1.3142786,-2.3501844,0.48558792,0.79737335,0.12773095,1.1143308,-1.1003098,-1.3712085,-0.7376572,-0.15275505,1.2162987,0
cats/train/cats_00157.jpg,0.1635177,-0.2526322,-1.0961146,-1.1989338,3.0645523,2.1472137,2.6051538,-1.09593,-2.1366205,1.5607406,3.5676112,-1.4974453,0.25836426,0.87263304,-0.29132786,-0.3365546,1.0100121,0.08095211,-0.9613707,0.959725,1.9562895,-0.35976487,-2.2495053,-0.0959437,-0.8336068,-0.24103622,-1.8139272,-0.37075382,-2.8116465,-1.2099713,-0.13081391,2.5741134,0
cats/train/cats_00158.jpg,-1.0295043,-0.625108,-1.5873487,1.2091365,2.6263561,0.858538,1.6473539,-0.6424886,0.10248601,1.034257,0.782325,0.15712953,0.8279188,0.635731,0.7035938,-1.0760226,-0.16724712,-1.3257982,-0.9434203,0.30437508,-0.120056845,2.4436412,-0.4616854,-0.8010181,1.1056051,-1.7811971,0.19332209,0.27470383,0.44653174,-1.1663364,-0.21317646,1.476794,0
cats/train/cats_00159.jpg,-0.92160046,-0.8915654,0.28085056,2.2488885,0.59335184,-1.4102505,-0.33216855,0.17950752,-0.0124274045,0.019866094,-0.6109993,0.6029186,-1.2814331,0.06990574,1.3537625,-1.2604612,0.21171743,0.24427208,-0.733205,-2.6087217,-3.4797497,4.014682,0.28155613,1.0046054,1.7628142,1.245039,1.9463241,0.62062544,-1.9497926,0.32069057,-2.1261463,-0.93947804,0
cats/train/cats_00160.jpg,1.3308214,0.64486194,-1.3260572,-0.01855351,-0.14459471,0.8597137,2.4905822,1.0340512,0.33426958,-0.5817318,-1.0619116,-1.3531654,-2.0216005,-0.0449279,-2.226991,-1.0053359,2.9235003,1.3161016,-0.5514378,-1.147315,-1.7669559,-0.27673042,-2.4325678,2.3662126,0.97417957,1.6292284,0.9315127,-1.296901,-2.102144,-1.95616,-0.96703887,0.20779048,0
cats/train/cats_00161.jpg,2.1013813,-1.9156046,-1.7613246,1.2852012,1.5311587,2.280029,3.4603846,-1.4990177,-0.18668011,-0.28357983,0.98179764,1.3564905,-2.9494994,1.9132447,-3.1179903,-0.4000662,1.711102,-0.1945305,-1.549241,0.04791661,1.3018324,1.6025994,-2.0754628,0.39514276,0.35122073,0.022669327,-0.06621936,-3.6460605,-3.3378,1.209464,1.361575,1.5439637,0
cats/train/cats_00162.jpg,0.41523632,-1.6929923,-2.5627463,-0.092092186,2.8792322,2.441401,4.057623,0.11451158,-0.9152168,0.7537385,1.0363418,-0.50472736,-2.6550822,1.5920162,-1.887015,-1.1896539,1.81779,1.1033766,-1.7678931,0.7515112,0.14306636,1.3475103,-3.70686,-0.08042868,0.2671358,0.079455435,-1.078393,-2.9722164,-2.6077569,-1.0509968,-0.38393554,1.8123578,0
cats/train/cats_00163.jpg,0.8583541,-1.159108,-2.4609942,0.83449715,0.93231,1.1809375,2.501514,0.82370925,-0.44601163,-0.23538697,-0.043264985,0.66690475,-2.9017088,1.3247569,-1.9370781,-0.7885729,1.1274071,1.2936547,0.3652953,-1.2962204,0.15299419,0.86490923,-3.5060728,0.60815555,0.3346418,-1.4312441,0.13759115,-1.4855905,-1.2558749,-2.2861211,-1.2587086,1.2289108,0
cats/train/cats_00164.jpg,1.6121836,-1.9859831,-1.1590916,1.1345092,2.6476293,0.78970015,1.1968969,-0.89638996,0.59906477,1.3054383,0.33311525,0.58455193,-0.117846936,1.0900755,-1.2764851,-0.6525553,1.4192826,1.3855443,-1.7386311,0.5718912,1.0962353,0.5504268,-1.2246072,1.802465,-0.1440975,-2.0051534,0.3992491,-1.8948859,-3.740447,1.965227,1.4294571,1.2282567,0
cats/train/cats_00165.jpg,2.0068939,-0.8203073,-1.1277804,2.4357638,0.0525688,0.09795076,0.6864921,0.13976468,-1.2052373,0.009674206,-0.14896488,3.2119462,-1.9485501,0.8988568,-1.1399465,1.2608688,0.53349745,1.6600158,-0.4972231,-0.84236145,1.076064,0.5642469,-3.0270686,0.6114026,-0.13393287,-0.65851396,-1.4051721,-2.6043155,-2.187725,-0.30234596,-2.1735487,0.7609255,0
cats/train/cats_00166.jpg,1.761549,-0.15217215,-1.9735715,0.13473427,0.5447476,1.3333089,5.0678043,0.60808545,0.045520276,-2.23122,0.058163587,-0.557067,-4.851792,2.195473,-3.5223978,-1.3945761,3.9602675,2.3882198,1.724009,-2.179309,0.08019301,-0.23961513,-4.610053,0.7993799,0.9074424,0.7650757,0.39222577,-2.9649353,-2.972202,-1.8108472,-2.9128683,-0.77147853,0
cats/train/cats_00167.jpg,3.1160707,-0.37999782,-1.652352,0.9881289,1.5075386,0.28405777,3.0631423,-1.5232879,-0.07808079,-0.36975956,0.9610801,2.7397654,-2.6547256,1.2409873,-2.0993273,0.9274041,2.2639563,1.5189884,-0.5221722,-0.19285204,0.4949912,-0.18879957,-2.679422,0.80243176,0.77449656,-0.25174588,-0.42549032,-3.3359742,-3.3722928,-0.62446934,-2.1838229,0.040802225,0
cats/train/cats_00168.jpg,2.5058584,-0.96706855,-0.89426845,0.7024442,2.2293522,1.4491066,1.8879442,-2.4730556,-1.4178462,1.474087,3.9671688,1.5988221,0.5535662,2.0502656,-1.9712764,1.1027503,1.966069,0.21807066,-1.604237,1.0740856,1.7038718,0.14817339,-0.7585736,0.10922945,-0.93758804,0.034636397,-1.5060441,-2.378403,-4.604284,0.31662363,0.12427586,2.1970155,0
cats/train/cats_00169.jpg,2.0520144,-0.25336123,0.87055457,2.432943,0.95674115,-0.75086826,-0.5015538,-1.0830852,1.3320636,0.28293788,-0.49951756,2.4789574,0.51670384,0.73432076,0.22943254,0.40672567,1.5765468,0.10804513,-1.9026371,-0.69289607,-1.4021809,0.3519892,-0.6312673,1.7026445,1.1118867,-0.42210087,0.70300436,-1.6182945,-3.3960283,0.37788197,-1.7639965,-0.5810727,0
cats/train/cats_00170.jpg,-0.21403053,-2.8294656,-1.4357841,1.7496281,3.3383615,2.1295633,1.1834269,1.1581693,-1.8088099,2.3891652,1.1288344,0.16923988,0.21369338,2.5484161,-0.81905305,-0.17106578,0.6232043,0.42119566,-3.3822508,2.2627845,1.6008415,1.5645703,-1.5172956,0.10893555,-0.6739584,-1.3450949,-0.9559975,-2.8472323,-4.0669365,1.4171298,3.0023923,4.2787666,0
cats/train/cats_00171.jpg,0.9877032,-2.3889623,-1.858646,0.21481712,2.9855318,3.3372636,3.7807631,-3.0546503,-1.3738153,1.6848617,3.608446,0.18667397,-0.91647005,1.9890406,-1.991784,-0.85168874,1.3683966,-0.9736207,-1.712696,0.9617818,1.7872427,1.9134172,-1.5788397,-0.13640644,-0.23566717,-0.16188806,-1.4351209,-2.4090889,-3.7426693,0.5757307,1.9691563,2.318242,0
cats/train/cats_00172.jpg,-1.338155,-0.87529314,-0.036432385,-1.541629,2.0762424,2.7763472,4.193595,-3.437523,-2.3421264,0.98439896,3.4696624,-2.6822526,-1.6368476,1.425269,0.6108679,-3.4231353,3.8682969,-0.93131375,-3.1873145,-1.1817878,-3.5844378,4.2171984,-3.0453687,0.64538515,0.8823756,5.7730765,-1.4521495,-1.1407149,-4.921551,-2.0010362,-2.832052,-0.9388393,0
cats/train/cats_00173.jpg,0.52275926,-0.30989343,-1.3907264,-0.5006429,0.79807466,1.4968288,2.4545705,0.24900883,-0.22423725,-0.69756174,0.119612806,-1.9162905,-2.848312,0.8197659,-1.3859584,-1.9488711,2.591873,0.8435412,-0.39971292,-0.14362222,-0.16345222,0.14407842,-2.0778005,0.59869826,-0.39546663,1.1098777,0.9723916,-1.3406854,-1.6531364,-0.16004008,0.21877648,0.4057224,0
cats/train/cats_00174.jpg,3.9553707,-2.175383,-2.4137592,2.4644434,2.6168735,1.6538687,2.0501928,-0.32593653,-0.59744906,1.0312383,0.9203351,3.178679,-1.0473154,1.9295446,-3.449732,1.7050797,1.0976369,3.1954343,-0.82889676,0.36856446,3.467169,-0.63930166,-2.5844116,1.6758573,-1.113515,-2.4833305,-1.1775594,-4.0858817,-5.0306587,1.6676065,0.79490805,2.6759572,0
cats/train/cats_00175.jpg,0.7640619,-0.43624833,0.45134175,0.10400796,1.948667,1.2712446,0.6621147,-0.86637974,-1.2535787,2.1257567,3.624311,-1.1049038,1.9162844,1.1827521,-0.9729711,0.10871962,1.4936244,0.046236835,-1.5466594,0.2707932,0.5400037,-0.06377636,-0.5779185,1.1076869,-0.64293444,0.22435288,-1.2231339,-0.059658792,-4.491606,-0.25284964,0.3108846,2.3850882,0
cats/train/cats_00176.jpg,2.2538552,0.034617674,-1.9632665,1.4048336,1.1505733,0.5754512,3.1918368,1.3569206,0.6391117,-1.4573337,-0.39222166,0.004115833,-2.4432766,1.0497291,-2.906738,-0.025680635,2.1569128,2.4122345,1.594643,-1.7989019,1.1043907,-1.1987137,-4.0811553,0.8532984,0.29271096,-1.549635,0.46760803,-2.018995,-1.9595878,-1.2078601,-3.1129923,0.2365365,0
cats/train/cats_00177.jpg,2.6826503,-0.13971058,-1.8639466,0.54677796,-0.39674562,2.2158337,4.1352005,-0.5785421,0.96559006,-2.1338477,-0.38550267,-0.29828814,-3.977867,1.6601015,-3.7216575,-1.6884849,3.8106782,1.0946411,1.0070772,-1.7993126,-0.42953506,-0.24572231,-2.6932232,1.3468076,0.63480586,1.6025846,1.4728092,-2.8412683,-2.1741843,-1.2914064,-0.8670193,-0.84891725,0
cats/train/cats_00178.jpg,-0.58682436,-1.8382177,-1.5443721,1.0522631,1.1899474,1.6984429,-0.16326894,1.4300989,-1.7138091,2.4340477,0.59736526,-0.73946166,-0.16298166,0.46709496,-0.79404795,-0.65637475,-0.033370372,1.3384824,-1.5219377,-0.67011106,0.3153094,1.8639636,-1.854968,1.8383807,-0.7622673,-1.27554,-0.7656021,0.062087834,-2.4487004,-0.20997204,2.087749,2.8447008,0
cats/train/cats_00179.jpg,0.8045862,-0.07079312,0.067137755,1.2649419,-0.46989942,0.7423733,0.4282732,1.8270069,-1.2258252,0.028338218,-0.329687,-0.97565347,-1.5927593,0.15864447,-2.2406287,0.7125447,1.3336476,-0.02979087,-1.9952545,-1.6468807,0.19335423,0.659896,-3.8038344,2.0520296,0.027972013,0.08339715,-0.44765148,-0.9950647,-2.973827,-0.30139706,-0.28337073,1.969999,0
cats/train/cats_00180.jpg,0.9892578,-2.8084843,-1.8442051,1.3627259,2.008211,2.7584128,1.7964809,-0.6826905,-0.58745456,1.8866186,0.8658491,-0.39655727,-0.9324313,1.3400989,-2.5322306,-1.2696952,1.7854227,0.11880069,-3.5598974,0.86281526,0.28328058,2.5566313,-1.3363719,1.6186298,-0.5369168,0.121952355,-0.12711218,-2.7392268,-4.2986884,1.9844322,3.3449786,2.9538546,0
cats/train/cats_00181.jpg,1.2054323,0.92984384,-0.68255436,1.709237,1.6503079,-1.2668977,1.5174341,0.6139015,-0.56746113,-0.4414419,-0.025701776,1.900772,-1.3508948,-1.1828592,0.27539003,2.1398907,-0.9907967,1.0190266,0.43409264,0.017922714,1.5168062,-0.8603807,-1.9320686,-0.1586624,0.99272895,-1.3231308,-0.9460324,-1.2236897,-1.1656529,0.6879964,-2.8986385,0.8601929,0
cats/train/cats_00182.jpg,1.8362561,-2.2653682,-1.2603602,1.989174,3.51958,2.0220385,1.1100141,-0.81430167,-0.5481785,3.0235424,3.2292886,0.69759345,2.4137266,2.275923,-1.8615181,0.23180246,1.1688129,1.2750112,-1.7675648,0.7915782,1.6346693,0.4664873,-0.45369327,1.1926426,-1.0034957,-2.2156217,-0.80491143,-1.6522803,-5.3764625,0.9051638,1.856587,3.4173214,0
cats/train/cats_00183.jpg,3.4613285,0.23742917,-2.3937557,1.8840181,1.1798748,0.5885107,2.9816754,-0.6361742,0.09439606,-0.3793159,1.025403,1.7193415,-2.0803337,0.10993008,-2.611913,0.52188325,2.1424322,3.119187,1.8730631,-1.6614534,1.0768787,-1.1174922,-3.229445,1.3382916,-0.18154365,-0.7665418,-0.7356797,-1.9933399,-2.868383,-1.166707,-3.9751554,0.21090296,0
cats/train/cats_00184.jpg,0.1051949,-0.9440619,-1.0488245,-1.2033132,1.7301455,2.568076,2.7280078,-1.9526093,-2.033957,1.4327421,3.110548,-1.2898824,-1.066585,0.7184503,-1.0061415,-0.9627695,1.5527616,-0.3800597,-1.46818,0.32595652,0.20652696,1.0425943,-2.2680125,0.5501504,-0.38373014,1.6300553,-1.8868958,-0.95424616,-3.0775447,-1.2035992,0.051934324,1.5546064,0
cats/train/cats_00185.jpg,3.2393165,-0.4085974,-1.1866746,1.8918226,-0.88720727,0.82606226,1.4928416,0.16977417,-0.61461085,-1.4002231,-0.11113128,2.479094,-3.721664,1.9607028,-3.1986656,0.6056712,2.6936836,1.2501582,-0.2919479,-0.97168344,1.8539159,-0.48011774,-3.5535522,0.83149624,-0.71945095,-0.5537999,-0.28153092,-3.485814,-2.735663,-0.18759272,-0.9630505,1.0361468,0
cats/train/cats_00186.jpg,-1.0141734,-0.7862136,-2.7914248,0.15628791,2.7716405,1.7874714,4.4289737,-0.24061407,-0.8218805,0.65560734,1.1811095,-1.0624024,-0.51163757,1.0987238,-0.59622175,-1.6175487,0.65923065,-1.324187,-1.2405667,0.44981685,-0.44066435,2.2969935,-2.3677466,-0.65389746,1.662375,-0.5304405,0.008436166,-0.8923909,-0.38067353,-2.957292,-0.6320959,2.367926,0
cats/train/cats_00187.jpg,1.473644,-0.72892374,0.21123877,0.71616876,2.09871,0.8091052,1.5964003,-1.1201363,-0.011012968,0.43642822,2.2243931,-0.21141872,-0.18622234,1.0563747,-1.7682204,0.26346475,1.229186,-0.07610214,-1.0841548,-0.3279515,1.0707337,0.26825526,-0.8502325,0.6734017,0.109862156,-0.34924844,-0.054341637,-1.2190855,-3.9800215,1.6366705,0.2098453,1.1916606,0
cats/train/cats_00188.jpg,0.80815023,1.1031162,0.44256604,0.8656556,-0.6279834,-1.5917345,0.89947665,0.62967324,-0.8288338,-1.5303227,0.6238743,-0.1523839,-2.421872,0.7099913,-0.7854285,0.2394859,2.7489235,0.61114466,0.5169193,-1.3921405,-1.1706463,0.040719047,-0.85115945,0.32793164,0.5854847,1.8968292,1.0607492,-0.74601793,-2.8101492,0.04189635,-2.89868,-0.46285522,0
cats/train/cats_00189.jpg,4.245924,-0.92567736,-1.4598465,2.9296198,3.4862573,-0.067535356,0.76791054,-1.8308928,0.47203377,1.0983982,1.5273131,3.4980552,0.6250314,0.63027644,-1.2901372,1.3811743,1.1050457,2.0478597,-1.562602,0.7298414,2.2432542,-0.42217574,-0.8593994,1.3960838,-1.0700207,-2.5147352,-0.0032419227,-2.5058932,-4.659068,1.9264022,-1.1823288,2.315329,0
cats/train/cats_00190.jpg,-0.36733967,-0.10335054,-0.16015467,1.8386858,1.5477355,0.10379968,1.4085702,1.0799409,-0.51819205,-0.35382614,0.83114415,-0.5782366,0.80501187,1.4708695,-0.4509302,0.032968476,0.009446379,-1.3632276,-0.36439988,-0.0050959736,2.2698734,0.38771477,-1.0279504,-0.7352521,0.49922153,-2.20062,0.6006884,-0.49601433,-1.2038491,0.68044186,0.5018851,2.530229,0
cats/train/cats_00191.jpg,0.6843418,0.52997863,0.27280027,2.1184287,-1.0424823,-0.37595165,1.7566881,1.0904504,0.49036497,-2.777423,-2.0506358,0.6704185,-2.7667136,1.210294,-1.3106384,0.4299013,1.3182257,-1.8844522,-0.77488583,-1.2507883,-0.19096415,1.2196808,-1.0310051,0.27681622,1.9719384,0.47653118,2.3701274,-2.090824,-1.2554561,0.97683406,0.55249494,0.1037803,0
cats/train/cats_00192.jpg,1.6380337,-1.4699845,-2.5731049,2.2354183,1.3347428,0.8104619,1.8363932,2.9065208,-0.28401506,-0.050155252,-1.8191051,1.5465326,-2.1999521,1.650225,-2.7362757,0.88569504,0.78815573,2.199896,-0.94967824,0.25377095,1.9356761,-0.067863725,-3.365811,0.8265407,0.09185326,-2.855861,0.15234469,-3.521942,-1.6644695,0.12208812,1.0265691,2.5920975,0
cats/train/cats_00193.jpg,-0.008905535,0.17697978,-0.5145548,1.597107,0.13437913,0.09970077,1.770526,2.3363094,-0.355706,-1.175287,-1.4040773,0.48493314,-1.0664722,1.5313437,-1.4456214,1.418854,0.3969383,-1.4345719,-1.4989781,0.85125905,1.4008311,0.2159554,-1.7418158,-0.71710646,1.2965292,-1.1750284,0.40273744,-2.5509295,-0.5255364,0.33576608,1.4721583,2.127344,0
cats/train/cats_00194.jpg,-0.30605882,-0.83656913,-0.78014815,-0.7055416,3.064472,2.1401765,2.9180412,-2.1381078,-1.6007972,1.3411547,3.6088407,-2.317563,0.10528857,1.261087,-0.6319235,-1.6145893,2.4799697,-1.5108293,-3.0721765,0.8852704,-0.14525628,2.245887,-1.4434986,0.015211776,-0.24435602,1.5881448,-0.64918566,-0.78056055,-4.0385256,-0.032872,0.12975433,2.3487546,0
cats/train/cats_00195.jpg,4.573737,-1.9463198,-2.4775348,1.162526,2.3300405,2.1809368,2.7875807,-5.330271,-1.1916338,1.968267,5.9605494,2.7106416,-0.31140196,2.7350225,-4.0839357,0.6108618,4.030797,0.6809364,-1.3978324,0.3921947,1.933725,1.1126381,0.9326241,1.956361,-1.720651,-0.19578588,-0.24124333,-2.8683012,-8.456008,2.080287,2.90376,2.8804035,0
cats/train/cats_00196.jpg,1.1924555,0.44096494,0.0673517,-0.4232629,-0.4030559,0.9487433,0.9444061,-1.6869893,-1.0577258,0.6026523,1.7928699,-0.15227687,-0.16109496,0.20127639,-1.1009766,-0.10166375,1.8951542,-0.9780198,-1.755407,-0.10060588,-0.56965333,0.04745163,-0.85079044,1.669082,0.19426191,1.8993616,-0.5701184,-0.6184947,-2.8346972,-1.1109381,0.2546504,1.055205,0
cats/train/cats_00197.jpg,1.6560732,-3.2020054,-1.6078982,2.2027018,3.4345663,2.021778,1.3434265,-0.7918042,-0.8380047,2.380602,1.8427378,1.1029278,-0.31114352,1.4608178,-2.395997,0.23456626,0.3062646,0.6249871,-3.161082,0.3446402,1.874568,2.1109352,-1.9985547,1.5539718,-0.7400245,-2.3193827,-0.6746993,-2.3703678,-5.4110584,2.427273,2.371114,3.7764332,0
cats/train/cats_00198.jpg,1.707553,-0.4025629,0.038766444,1.6692368,0.09567563,1.4242465,2.5755715,-2.1600215,0.4734948,-0.8453528,-0.2943678,0.77141726,-1.6676024,-0.4486341,-2.2244012,0.80273557,0.84791833,-2.0818195,-2.2484384,-2.050133,-0.72094274,2.160883,-1.6415715,2.213433,2.3638413,1.5296142,0.3856901,-2.023787,-3.7686007,1.6236306,0.3630964,-0.2513237,0
cats/train/cats_00199.jpg,2.9923956,-2.1157207,-2.990629,0.7965752,2.7120187,3.0765631,4.0630355,-3.789726,-1.6923296,1.555147,5.1393247,1.9358668,-1.0456443,2.6909187,-3.8148713,0.337551,2.4022362,0.42224365,-0.65647537,-0.21107902,2.5676148,1.3367414,-1.4625437,0.4214596,-0.9756157,-0.8931906,-1.3715876,-2.8450887,-5.7096367,0.26283264,1.465661,2.7434535,0
cats/train/cats_00200.jpg,1.3288652,-1.8731921,-2.4171615,2.841215,1.8024824,0.9286696,2.0802886,2.2045088,-1.2712495,0.65129745,-0.54266363,2.6205769,-2.2519279,1.6047177,-2.0657618,1.3948034,0.010506779,2.6302974,-0.5211877,0.096686825,1.6721569,0.6106851,-3.7423353,0.061477523,0.1262395,-1.9390674,-1.6598736,-3.749877,-2.283353,-0.15522924,-0.94632274,2.3608885,0
cats/train/cats_00201.jpg,-0.95488995,-1.0195446,1.5735168,3.0470748,0.6946822,0.34744412,-0.96131516,-0.34313157,-0.3310183,1.292778,1.0456378,1.057549,0.67934513,0.78646797,1.8938524,-0.5909499,-0.32409266,-1.1000364,-1.8225479,-2.6914616,-4.046071,3.8423269,0.2829098,0.854273,1.8000271,1.9901922,0.33507478,0.4230766,-3.456552,-0.5925398,-1.819893,-0.30843762,0
cats/train/cats_00202.jpg,0.82002693,-0.8449015,-0.96980095,2.3835785,1.6064615,0.984815,1.467361,-0.30816177,-0.8646955,0.24597275,1.5109965,0.82425654,-0.123358764,0.5910468,-1.2551967,0.5358644,-0.9252845,-0.65871394,0.20196013,-1.443033,3.0836525,0.88189334,-2.19512,0.16082136,-0.031391498,-3.0363965,-0.4094696,-0.38958433,-1.6919395,0.7371246,0.025866197,2.4518015,0
cats/train/cats_00203.jpg,1.8246882,-2.7208192,-2.2360623,1.6661971,2.4832954,2.4229705,3.4378166,-0.31448445,0.19237873,0.46166006,0.7190304,0.12533978,-2.8393285,2.3527293,-3.8238235,-1.2062789,2.8949697,0.8506758,-2.6175451,-0.2462551,-0.46861994,2.376369,-2.2522905,1.3188512,0.39611635,0.29654643,0.8003677,-3.8559477,-5.167247,1.3473312,1.4609523,2.0478206,0
cats/train/cats_00204.jpg,3.1747146,-0.5732726,-0.66172665,1.3566953,1.4723535,0.40523475,0.769028,-1.3675919,-0.19969219,0.689597,2.0622265,1.5328467,0.1370579,0.9015276,-2.2100463,1.0715494,1.4338953,0.7898192,-1.0163503,-0.12775984,1.8905611,-0.7345969,-1.2525312,1.4879887,-0.90783936,-1.5194312,-0.14696184,-1.4601454,-4.1974463,0.7692643,-0.2036929,2.0697277,0
cats/train/cats_00205.jpg,2.34703,-1.1659367,-1.3687243,1.8501272,0.71333265,1.2506821,-0.8523996,-1.0570008,-1.6145313,2.252649,2.0000794,2.0197575,1.0860047,1.2237507,-1.0473183,0.12959453,1.5540999,0.73680115,-2.5910022,0.78258985,1.3210776,0.6420906,-1.1585113,1.552644,-2.3130047,-1.0744331,-1.0315615,-1.3649343,-3.4970696,-0.6091069,0.9896685,3.6683385,0
cats/train/cats_00206.jpg,2.0480547,-1.0040368,-2.3223217,1.716336,0.514002,1.1420311,3.4407048,2.1420531,-0.08392281,-1.8769939,-1.0284598,1.0945268,-4.4983377,2.4566982,-3.656802,-0.11138482,2.343018,2.7516093,1.2639294,-2.00729,1.6736684,-0.45471343,-5.402353,0.4274209,0.19513932,-1.8582293,-0.024702819,-3.6050093,-2.1703155,-1.1399896,-2.1655424,0.47208363,0
cats/train/cats_00207.jpg,-0.7174338,-1.3956062,-0.656719,0.8236576,1.1456313,1.9086717,3.0700648,-1.1121533,-1.0128133,0.20432106,0.54700595,-0.11220113,-1.4583671,0.59361726,-0.959354,-0.28932583,-0.40779808,-3.0505946,-2.7306821,-0.0041401014,-0.032537103,2.959021,-2.0084195,0.088370696,1.9889188,0.7195308,-0.49560675,-1.7274948,-1.7344571,0.1616011,1.3813457,1.8188525,0
cats/train/cats_00208.jpg,-0.11274727,-0.13447583,-0.9261012,1.2070199,3.9339778,0.9341771,3.1201258,0.67690456,-0.2851713,0.97646534,0.52581406,-0.40532345,1.4735795,0.38167894,-0.4651077,0.9486955,-0.58038425,-1.583588,-3.2034156,2.082193,1.5223134,1.0425127,-1.9705584,-0.5828224,1.7771771,-1.5802096,-0.87560046,-1.9821364,-1.1050006,0.13687797,0.30840135,3.2902098,0
cats/train/cats_00209.jpg,0.17408119,-0.26223543,-0.5585205,-0.1000832,2.0646887,1.6526263,1.2200426,-2.6228743,-2.3058586,2.5703754,4.469103,-0.33184808,1.9572729,1.1725254,0.5250875,-0.5556834,2.0165918,-1.0923874,-2.381882,1.10391,-0.48122442,1.4015617,-0.28440332,-0.050915882,-0.691513,1.5778102,-1.7355711,-0.12306239,-3.450348,-1.7956343,-0.72638285,2.2534785,0
cats/train/cats_00210.jpg,5.5509663,-0.9976863,-3.4694936,2.6619177,0.5352951,1.7398592,2.826891,-1.2449409,-1.0336366,0.12984715,1.1490052,5.1551733,-2.8538024,2.0872638,-4.311545,1.8464025,2.6822853,3.052497,-0.21365736,-0.0002095513,3.254473,-1.0953009,-4.23903,1.0466549,-1.3215485,-1.7359402,-2.0394173,-5.1525993,-3.5076745,-1.3128717,-1.6415687,2.1562512,0
cats/train/cats_00211.jpg,2.656356,-1.4038558,-2.8255363,2.1492352,1.6369789,1.4544449,2.5249019,-0.6591129,-0.1413559,0.55611247,0.5357384,2.0449066,-0.75274897,1.3247161,-2.6267703,0.21595427,1.2171646,1.685532,-0.047848083,-0.36329293,2.2084682,0.4565178,-2.6536803,1.0520108,-0.45003533,-2.418344,-0.43912745,-2.502736,-2.1982439,-0.41286987,-0.21978222,1.8502954,0
cats/train/cats_00212.jpg,2.459181,0.50349987,0.45186007,0.07435757,-0.3093417,0.8464593,0.11023131,-5.529753,-2.601191,1.7760915,5.130306,2.0052922,2.2617924,1.5559824,0.55421513,-0.35464585,3.9267926,-1.331825,-2.7762496,0.977467,0.103905804,0.48037958,0.34422365,0.8612378,-1.8933752,3.0411575,-1.8665445,-1.2766848,-4.8352113,-1.2430009,-0.9758796,1.0632194,0
cats/train/cats_00213.jpg,-0.017134644,0.24959202,0.37516996,0.68203694,2.7614114,-0.22043677,0.30862084,0.09752536,-1.3607966,1.4489009,1.3570608,0.16476208,1.5390552,0.18405923,1.014942,1.0816456,0.11083272,-1.552719,-4.4534974,2.414904,0.40065587,0.9485005,-1.3024766,-0.3658972,0.32589036,-0.054053903,-1.17261,-1.1693773,-2.1815207,0.041007705,-0.75747794,3.2774518,0
cats/train/cats_00214.jpg,0.63909894,0.31896552,0.1720907,0.77675694,0.40370938,0.20139319,1.7678039,1.8138449,0.34380606,-0.794454,0.07401869,-1.0006751,-1.0077333,0.9706972,-1.6486388,0.10487749,1.6269631,2.090482,2.132761,-2.035442,-0.38901818,-1.3985387,-1.8937825,0.91527086,0.8735261,0.2230887,0.07001178,-0.8275693,-2.3777936,-0.80836916,-2.2163088,-0.80404246,0
cats/train/cats_00215.jpg,4.1228113,-0.15372038,-1.2208459,2.1327307,1.0580974,0.14962913,1.4616835,-0.6099625,0.29825786,-0.7773144,0.2458011,2.7650578,-1.4348959,0.99353313,-2.9955218,1.7695872,1.8572932,2.1116908,0.10864141,-0.5730438,2.699175,-1.2424992,-1.7706892,1.405344,-0.6313634,-1.5875622,0.07691736,-2.932596,-3.6095219,1.5158554,-0.78063834,1.0429945,0
cats/train/cats_00216.jpg,1.1848974,1.0934434,-0.2815253,0.2876577,0.0875774,0.10463001,0.11394127,-2.853312,-1.8945565,1.327701,2.8886254,1.4834403,2.109757,0.55750924,1.1125424,-0.0023231357,2.1172762,-1.5243896,-2.7183075,1.5096607,-0.22591865,0.31204942,0.421899,0.05517166,-0.61210847,1.7206265,-0.94701684,-0.71336013,-2.030703,-1.7815231,-0.9474386,1.7433662,0
cats/train/cats_00217.jpg,1.9187212,-1.3954201,-0.5466598,3.5083737,1.8051621,0.50446653,0.62568825,0.15684877,0.658762,0.73245394,-0.024426263,2.1477888,0.6083081,1.2787521,-1.4802834,0.8522238,0.44342613,0.53171444,-1.602396,-0.1999341,0.94706047,0.8889148,-1.1250598,0.87356853,0.37265867,-1.9275699,0.019188989,-2.4264305,-3.3389513,1.7039378,0.13251461,1.6994563,0
cats/train/cats_00218.jpg,0.68179786,-1.9531202,-2.7518144,0.2706116,3.323899,2.867758,3.7344937,-1.2660879,-0.34318006,1.272961,2.091159,-0.6197062,-1.1332047,1.7762486,-2.1470883,-2.0187955,2.1120887,0.21018668,-1.9597951,0.015919928,-0.3001986,2.5811608,-2.8594704,0.41633746,-0.024434648,-0.4563988,-0.4614017,-1.7115502,-2.8716264,-1.7848518,-0.3421473,2.389066,0
cats/train/cats_00219.jpg,2.7593882,-0.2808376,-0.5224591,0.71206385,1.5069379,0.7400932,0.95956755,-4.095697,-1.4417889,1.8837554,4.827281,1.5225207,1.7665187,1.5592529,-0.97891897,0.21149662,3.1167967,-0.9236383,-2.699673,0.9427356,0.3046378,0.7517806,0.026568249,0.6768744,-1.2693734,0.90393335,-0.8551746,-1.2845925,-4.9969707,-0.5384503,-0.7572668,2.169848,0
cats/train/cats_00220.jpg,-0.15237963,-1.4249878,0.085380286,1.1356726,1.2732837,0.17959097,0.7000896,1.5671297,1.2160555,0.22154166,-1.662308,-0.6712038,-0.7544333,1.713287,-0.7280606,-1.5673062,1.8341118,0.70924443,-2.0451777,-1.0997255,-2.11344,1.7838764,-2.635923,1.5174775,1.3307767,-0.77166814,1.2343819,-1.2383264,-2.0667768,-0.8607064,-0.8183017,-0.20042156,0
cats/train/cats_00221.jpg,3.9039588,-0.9432589,-2.037759,4.115202,4.8165607,-0.8527351,1.3289915,0.9591754,0.5982191,0.7908923,-0.42074957,3.5911045,0.38437387,-0.37236115,-1.8743504,3.1284683,-0.89594734,3.130019,-1.6331193,0.91632533,2.9601314,0.03761898,-1.2280074,1.0928043,-0.30118245,-3.6284652,0.022267513,-3.1490326,-3.932991,3.2900903,-1.112248,3.4982963,0
cats/train/cats_00222.jpg,0.76219535,-1.3385471,-2.4894075,1.6304438,1.3078307,1.8260573,4.475754,0.6658977,0.10119566,-1.079124,-1.4935008,1.3733169,-3.3856533,1.5504625,-2.4770749,-0.44937932,0.6576051,-0.10367219,-1.045462,-0.42780903,0.8431112,1.9047191,-3.942255,0.031790286,1.9437933,-1.026283,-0.12143065,-3.692015,-0.8313852,-0.90158105,0.015189454,1.3001132,0
cats/train/cats_00223.jpg,-1.6527504,-1.8087268,-1.0742505,0.18221447,2.4272091,1.9226447,1.7024317,1.2378516,-1.8133684,1.2386863,0.38431847,-1.8292024,-0.51896703,1.3398879,0.08504447,-0.89778656,-0.106584966,-0.054270208,-1.4816816,0.5806873,2.1296105,1.1704696,-2.2086034,-0.07132092,-0.1772091,-1.563886,-0.43197852,-0.96167994,-1.692868,1.2598492,2.893228,2.2410347,0
cats/train/cats_00224.jpg,1.7019544,-1.949179,-2.3286006,1.2346648,1.3427429,2.442518,1.0710791,-1.3954941,-1.6865411,2.0888872,1.9304222,1.0477135,-0.8039662,1.2131201,-1.8743236,-0.9232979,1.9430778,1.4914675,-2.1053855,0.28668785,1.7139122,1.7078862,-1.8967541,1.4079552,-1.9697812,-0.65764993,-1.4227599,-2.0659988,-3.8741078,0.808843,1.9776,2.8489516,0
cats/train/cats_00225.jpg,-0.82722276,-1.0519658,-1.9780267,0.43027398,1.788532,0.6253444,2.528523,2.4743214,-1.1662325,0.041432135,0.12385517,-0.5382035,-1.7017369,2.3103633,-0.6473396,-0.76039296,0.8793954,1.0731995,0.1662935,0.49490273,0.46364224,0.21094503,-2.5140913,-0.841629,0.58686954,-1.3676426,0.27815276,-1.6511418,-0.6962862,-1.8827431,-0.29905814,1.8454263,0
cats/train/cats_00226.jpg,0.040257927,-1.3513376,-1.7181256,0.6454714,2.4362135,1.7319927,1.5587112,-0.53738034,0.21913582,1.1317759,0.5482023,-0.59608305,-0.70575047,0.65003973,-0.586219,-2.0118742,1.1917548,-0.30842128,-2.334709,0.66132796,-0.44159028,2.0545917,-1.3004841,0.5696215,0.0099739805,-0.6741941,0.3744936,-0.8001058,-1.6750922,-0.24737272,0.7764332,2.1714573,0
cats/train/cats_00227.jpg,1.3104098,-0.8687588,-1.3936695,0.5365672,1.7002264,1.5220141,2.9240365,-0.009576611,0.7352648,-0.15610716,1.1514554,-1.6886023,-1.6565577,1.3571074,-3.1511827,-1.507071,2.9849758,0.781761,-0.4944155,-1.4225895,-0.9766859,1.1416167,-2.0456784,1.1519685,0.28048745,0.23598167,1.1523527,-1.1618294,-3.341211,-0.5599973,-0.79560494,0.87606,0
cats/train/cats_00228.jpg,0.526026,-0.10341859,0.76201737,0.68130076,1.1445183,0.6502271,1.2021837,-0.12196873,0.10133157,0.16953824,1.1005516,-1.4255387,-0.15682395,-0.49575904,-1.6841922,0.72942185,0.44615835,-0.6402914,-1.4403229,-1.3484395,-0.50958663,0.75151503,-0.80308944,1.3782023,1.015015,0.97400403,-0.0069989488,-0.36071217,-3.8315547,1.812159,-0.014588087,0.7716466,0
cats/train/cats_00229.jpg,-0.42447993,0.024149574,-0.6596228,-0.78473186,0.7949033,0.14980075,2.4612074,0.84094673,0.13281564,-1.1629004,-1.0153648,-2.3699126,-2.7441063,1.0670646,0.07917151,-3.3322227,3.3006883,1.3107812,-0.5981385,-1.4130442,-2.1835577,1.0859332,-4.3011694,1.3025525,0.559514,1.2564102,1.2033848,-0.50103426,-1.2858889,-2.9291492,-3.5317245,-0.89331025,0
cats/train/cats_00230.jpg,-0.1589916,-2.6252718,-1.2211664,1.716222,1.5423217,1.4591436,0.147541,1.446969,-0.36488786,1.6118554,-1.073116,-0.8357376,-0.26650673,1.2576504,-1.0604877,-1.6518877,0.7545272,0.69978327,-2.8764563,0.4194746,0.7561964,2.238179,-1.6697534,1.6564106,-0.6991879,-1.6943504,0.735253,-1.4242595,-2.36047,1.707935,3.3365211,2.7835407,0
cats/train/cats_00231.jpg,3.3053339,0.73046565,-1.551065,1.0014567,-0.8664867,0.4773752,1.2512527,-0.6778642,-0.12899731,-0.8781317,0.104099914,1.5063595,-1.5173478,1.0412428,-1.981343,-0.19116235,3.3827293,0.66483593,-0.9666947,0.7275947,0.7208461,-1.2606648,-1.6861911,0.74510986,-0.9257679,0.6023144,0.5138187,-2.7752938,-1.3857183,-1.2441419,-0.9502776,1.0597253,0
cats/train/cats_00232.jpg,-1.3268472,-1.5731437,0.88965034,2.0522165,0.071180865,0.112810194,-1.2517658,-1.2420913,-0.5501789,0.14235982,0.20840688,2.5455317,-0.97084963,2.3418689,2.8024497,-1.6396563,-0.27761534,-1.3676829,-0.93253124,-1.878426,-2.3663602,3.8209393,1.1753923,-0.20082133,1.0601155,0.664081,1.69537,0.3169539,-1.5200175,-0.367825,0.49441308,-0.84967905,0
cats/train/cats_00233.jpg,-0.06642152,-1.6827048,-0.514213,0.7401413,1.9072068,1.4784662,0.9231605,1.3247356,-0.54327655,1.4723461,0.76486284,-1.4168746,-0.081699625,1.7305977,-1.5570651,-1.0436299,1.6155167,1.036731,-2.0169642,0.7650975,0.108230956,1.0269089,-0.92785704,1.0024282,-0.39504915,-0.01673824,-0.09865116,-1.5350157,-3.490982,1.0433432,2.0670054,2.4337049,0
cats/train/cats_00234.jpg,2.131879,-1.1787746,-2.5787904,2.8833957,-0.07758199,-0.52996695,1.3764458,-0.6120231,-0.8177037,-0.6997734,-0.437397,3.133272,-3.582561,1.4670941,-1.2937733,-0.66684276,2.5438323,1.7193722,-0.7022243,-1.4125521,-0.5926106,2.919873,-2.496247,0.6812687,-0.09089921,-0.17450117,0.95804965,-2.5210428,-2.222504,-0.50988656,-2.6532314,0.34765574,0
cats/train/cats_00235.jpg,3.0033276,-0.6075268,-1.6734092,0.7252439,0.5744144,1.6264678,3.1027079,-0.29465422,-1.3119829,-0.914327,1.7054651,0.69581956,-3.8755271,1.7333165,-3.811403,0.58576816,2.63996,1.685175,0.40984434,-0.810329,3.2899916,-1.3198366,-4.145396,0.84417945,-1.0489163,-0.864176,-0.87205374,-3.2093618,-4.115798,0.7222873,-0.27070653,1.5906997,0
cats/train/cats_00236.jpg,1.0961678,-1.2647257,0.6174258,0.3177063,0.50694835,2.103918,1.5708352,-0.64850223,-1.0084038,0.55703133,0.94455755,-0.2621518,-1.3333536,1.5622813,-1.9899046,-0.08127962,2.0766053,-1.2256517,-3.4380481,0.9045116,-0.682055,1.0101948,-1.4335268,1.1423604,0.3765339,2.7667165,-0.6932097,-3.1424403,-3.9893808,0.49307597,1.6143272,1.5960587,0
cats/train/cats_00237.jpg,0.28713477,-1.4341362,-2.474502,0.36861542,1.2814592,2.3578167,3.996436,0.6513617,-0.25571853,-0.72763145,-0.81285435,-1.3461182,-4.1146317,1.3155872,-2.0964537,-2.571965,2.395118,0.8850917,-0.8973131,-0.63199663,0.34872738,1.5947403,-4.5035415,0.5905904,0.2726851,-0.061485752,0.3184733,-2.6282203,-1.5094372,-0.65031856,-0.059241135,0.9141322,0
cats/train/cats_00238.jpg,3.0457625,-1.0154246,-1.1596677,2.0778105,-0.32842088,0.16993965,1.192219,0.5618477,-0.8527563,-0.51401824,-0.016634027,3.1730204,-3.1887457,2.142234,-2.7982054,1.5084926,2.1229768,2.1469283,0.10723141,-1.3545539,0.5549836,-0.36418214,-3.0935323,1.3013077,-0.006810263,-0.56158996,-0.2945633,-3.2924771,-3.75305,-0.9162487,-1.5738126,0.59840196,0
cats/train/cats_00239.jpg,-0.12794496,-1.5509188,-1.0235951,0.35571092,1.4963384,1.6217173,2.177503,0.65628767,-0.48672175,0.14714214,0.5688319,-1.3643932,-1.4627724,1.5430987,-1.700101,-1.2301242,1.0720751,-0.45847547,-1.4959098,0.39076695,0.29706433,1.4384518,-1.4576448,-0.1323547,0.06304234,0.06370337,0.5791783,-1.5914888,-1.7353578,0.37305266,1.4341565,2.0013707,0
cats/train/cats_00240.jpg,1.0866799,0.3086346,-1.1276159,0.72756076,0.44920456,0.9936551,3.0748696,0.1850403,0.6535342,-0.65281594,-0.48577392,-0.6262371,-2.189153,0.27762264,-2.0925107,-0.9875591,2.7268229,0.32236722,-1.0939672,-1.7980565,-2.894106,1.599868,-2.6682637,1.5453261,1.8306533,1.9550774,0.66318554,-1.4736778,-2.217043,-2.3301265,-2.5494823,-0.27380708,0
cats/train/cats_00241.jpg,1.7490026,-2.9060276,-1.5460789,2.2963855,1.7841089,1.6904837,0.22335202,2.4927454,-0.28115842,2.1068592,-0.10453771,0.36094263,0.33878535,2.6548235,-3.357486,0.25905642,1.3827506,2.404723,-1.7249527,0.22532406,1.7762444,-0.2924453,-2.012651,2.4916792,-1.0261136,-3.3579712,0.28100374,-2.5063694,-4.7805467,0.9236397,3.5765553,3.8891613,0
cats/train/cats_00242.jpg,2.2545485,0.1742995,-0.084770545,1.3390454,1.4977075,0.088017434,0.26547518,-1.3574519,0.57810783,0.7429615,1.681978,0.35132745,1.4521873,-0.24479175,-1.2127494,0.7653918,0.92168015,-0.15245934,-1.2377526,-0.3949408,0.6387264,-0.16699073,-0.36817795,1.4632059,-0.30572265,-1.0561823,0.2784187,-0.057201155,-3.1704502,0.8477192,-0.65768385,1.4489745,0
cats/train/cats_00243.jpg,3.9513726,-3.0830789,-2.5252044,2.7459729,2.9615762,3.0770783,4.180248,-3.6530375,0.16055706,0.708521,2.2303762,2.4325953,-2.229904,2.2020042,-4.597338,-0.41961777,2.8500469,-0.02003114,-3.1864138,-0.57559407,1.2175058,3.4043212,-2.1251907,1.8448273,0.061498426,-0.23791774,0.046964154,-4.6772313,-6.6288557,2.532616,1.5982808,2.3621817,0
cats/train/cats_00244.jpg,2.630107,-0.94482476,-1.5447109,1.1816881,1.7399025,1.3770095,1.5123833,-1.9240978,-0.5628592,1.3793163,3.177884,1.0350626,0.4728185,1.3434871,-2.578409,0.6628665,1.860507,0.24963722,-1.067013,0.050532043,1.395768,0.31119192,-0.8256262,0.9934394,-0.968116,-1.2480094,-0.40690693,-1.3134792,-4.1463566,0.14470899,0.54845667,2.4689593,0
cats/train/cats_00245.jpg,-1.3544592,-1.594351,0.34542537,1.8902379,-0.03433359,-1.0682874,-0.3859479,-0.48523724,-1.0953385,-0.38068867,-0.14386758,1.5433973,-2.123694,1.0434586,2.0086257,-1.2883755,-0.7099793,-0.5718531,-0.1263467,-2.5295794,-2.0367372,4.078261,0.013407642,0.4206438,1.3988757,0.52514446,1.7999983,0.6075969,-1.498884,0.15047652,-0.93928313,-0.70683897,0
cats/train/cats_00246.jpg,0.7759242,-1.1636086,-1.3466166,0.93854415,1.4662515,0.84698814,1.4348794,2.0193522,0.2558962,0.5138974,-1.2561287,0.55783737,-1.0958787,1.032793,-1.2931355,0.09122269,0.62090355,3.0845292,0.69545597,-0.8555324,0.20873609,-0.8478696,-2.9793255,1.5211233,0.6703032,-1.6606042,-0.5839874,-1.8916655,-1.710405,-1.2084677,-0.93466294,0.07607295,0
cats/train/cats_00247.jpg,0.63748145,-0.75148726,0.1328057,0.20913881,1.1399595,0.5684026,1.718848,-1.4943396,-0.2240416,-0.22443774,0.81662387,-0.12633789,-1.7993544,0.81569225,-0.79285985,-0.8050082,1.756301,-1.109064,-2.5130553,-0.34584045,-0.9349703,1.982641,-1.5926244,0.69011974,0.82833886,1.3478557,0.44980484,-1.5784066,-2.88189,0.59762204,-0.43088555,0.23265849,0
cats/train/cats_00248.jpg,1.3343574,-1.7616758,-0.63828194,1.8477126,1.8996321,0.21818751,0.4123951,1.6603013,0.8016847,1.2870562,-0.93741095,1.6433966,1.0896939,2.211968,-1.4149565,1.0716366,0.641093,1.6373584,-1.1038897,0.76091623,0.6072088,-1.020374,-1.470548,1.4148018,0.8328393,-3.0142083,0.07805101,-2.5533805,-2.7579553,-0.224161,0.997943,1.3177044,0
cats/train/cats_00249.jpg,0.663922,-2.449602,-0.814576,0.7524278,1.8921992,2.7464645,3.3085103,-1.4956987,-0.5303389,0.6607301,1.5403665,-0.65409064,-2.5606816,1.5153383,-2.807548,-1.182247,2.0772345,-0.5457349,-2.8631299,-0.45228118,-1.1323849,3.348571,-1.9696435,0.9777438,0.7488822,2.295876,-0.48387575,-3.0177083,-4.7354083,1.4149514,1.0517257,1.0837202,0
cats/train/cats_00250.jpg,0.09243189,-0.13645656,-0.16852418,0.56773365,2.36533,0.26205826,2.0057163,0.88601047,0.49066254,0.10241352,0.24922937,-0.7893133,0.7132915,1.3141528,-0.68430555,-0.008551676,1.0456547,-0.49857756,-1.47609,1.4499124,0.8995377,-0.3780884,-1.9312379,-0.15994516,1.1336367,-1.3997328,-0.32468137,-1.714738,-1.3659804,-0.2465284,-0.61588156,1.5427681,0
cats/train/cats_00251.jpg,2.9389153,-0.8782535,-1.0746462,1.2433255,1.4872905,0.69731754,0.6071368,-2.2479498,-0.41471493,1.4529833,2.8651307,1.168033,0.68095434,1.3630654,-1.9002696,0.025642715,2.6070888,0.69731116,-1.6927977,0.51821375,1.3090138,0.0043510497,-0.23219484,1.5298772,-1.4889746,-0.9291324,0.15968785,-1.4040437,-4.821433,1.1637614,0.9770335,2.2397184,0
cats/train/cats_00252.jpg,1.2071903,0.3044048,0.64406353,-0.5186226,-0.3283105,1.1687905,0.2927033,-3.9035637,-2.5829763,1.1830949,3.6731222,0.0919694,0.69365346,0.82576644,0.5129882,-0.99185026,3.2836623,-1.718276,-3.3170943,1.3370569,0.16119501,0.6770142,-0.41040918,0.6186209,-1.5701313,3.424257,-1.5625939,-1.2799518,-3.8249671,-0.0580045,-0.061823867,1.2742088,0
cats/train/cats_00253.jpg,2.3917322,-1.7891989,-0.9140236,1.9780014,1.3778706,1.2282333,-0.4364477,0.31107423,-0.47672224,2.016281,1.2852099,0.70651126,0.5178505,1.7140349,-2.3714402,-0.14997917,2.426509,1.836811,-2.4126463,-0.037719473,-0.120238304,0.6967261,-1.1115307,2.3643284,-1.5039524,-0.52584165,0.0099511,-1.7735019,-4.90163,0.20584403,0.87905484,2.8523679,0
cats/train/cats_00254.jpg,-0.17663205,-1.7186483,-0.54183215,-0.72364825,1.4105992,2.9486873,4.582287,-2.0826514,-1.2764984,-0.11664604,2.018688,-2.1177328,-3.3035278,1.8980765,-2.051533,-2.4909048,3.2519274,-1.2028748,-2.654123,-0.51216054,-2.040173,3.1071515,-2.2705395,0.889258,1.2271333,4.512424,-0.09857583,-2.7643147,-4.8129673,0.066835016,0.43709424,0.26794267,0
cats/train/cats_00255.jpg,1.0329363,-0.25021967,-1.0140676,0.425573,0.49403656,2.3638742,3.441436,-1.8613616,-0.30445164,-0.008188538,0.847625,-0.43935144,-1.5981683,0.010225281,-2.0791404,-0.5439527,1.6222364,-1.9183095,-1.6864651,-0.61324245,-0.8498031,1.2813848,-2.0845673,1.4163431,1.4644467,1.8533831,-0.29864183,-1.6756209,-2.6154635,-1.12197,0.2089945,1.0492703,0
cats/train/cats_00256.jpg,1.3460423,-1.1252389,-0.90230846,1.3802557,3.31595,1.349489,2.7634418,-1.2895514,-0.10018502,1.2482753,1.5853264,0.5140774,0.47272754,0.42959523,-1.5729258,0.87748766,-0.049321942,-1.0786103,-2.4724996,0.9583803,1.9145263,1.0882707,-2.1048558,0.4924053,0.79442805,-1.8980886,-0.96717566,-1.8808017,-3.0585897,1.1326469,0.6049883,2.6701462,0
cats/train/cats_00257.jpg,2.2067072,-0.73525226,-1.7324326,2.649833,0.52867675,0.43970442,0.3590559,-1.075062,0.83607674,0.49470922,-0.54376674,1.3131018,0.93721575,0.9529836,-1.130988,-1.4313117,2.3264766,-0.04809063,-2.166,0.008077636,0.15879104,1.7478622,-0.53276944,1.3891075,-0.6000475,-1.2664607,1.6419315,-1.3581601,-1.3205268,-0.0717667,0.35619178,1.671895,0
cats/train/cats_00258.jpg,0.10562873,-2.0083427,-1.9785542,1.4804325,2.3124998,1.577231,2.51871,0.9408395,-0.25966486,1.3826942,-0.41848552,0.91274136,-0.52429664,1.5940744,-1.5205046,0.015498847,0.28817552,0.0049876124,-2.5485432,0.99798334,-0.32511073,1.901445,-2.1693182,0.39357635,1.5185745,-1.0498285,-0.5165335,-2.8853612,-1.6361935,-0.963959,1.0799968,2.2653556,0
cats/train/cats_00259.jpg,0.91341776,0.64095855,-1.5634874,1.187439,0.09305124,0.89307755,1.491492,-0.5128705,-0.1825182,-0.1256158,-0.24543923,-0.17498128,1.1342082,0.42745128,-0.16708007,-0.57341444,1.9906745,-1.5176082,-2.4573953,2.2385335,0.29527697,0.25621653,0.1926848,-0.45221502,-0.15753347,1.1277237,0.80625784,-2.212804,-0.12631702,-0.015286565,1.0192274,1.7945013,0
cats/train/cats_00260.jpg,-0.73823434,-1.5842577,-1.0115236,0.5500006,1.4548718,2.1159692,0.80380845,-1.2604768,-1.2198185,2.1046696,0.9153864,-1.2040446,0.5342155,0.20683226,0.19892639,-1.8016734,0.8109292,-0.7740326,-2.8308027,0.509111,0.055192214,2.908878,-0.97511095,1.1718249,-0.4569621,0.42487243,-0.6833341,-0.2677194,-1.9852138,0.6847346,2.1612241,1.8963575,0
cats/train/cats_00261.jpg,2.211114,-2.2092316,-1.5737649,1.6538117,1.1734589,1.3333865,0.74988025,-0.46344724,-0.9760822,1.8125737,1.3123647,2.6572373,-1.0985932,2.321832,-2.4050727,0.7474637,2.030385,1.0106606,-2.5515194,1.3205225,-0.33918646,0.97503144,-0.35936615,1.2628798,-0.35486093,0.14560768,-0.51255673,-3.437899,-4.680949,0.135645,1.9374491,2.6984909,0
cats/train/cats_00262.jpg,0.94124025,0.5486364,-1.7008314,-0.4591766,1.5254194,0.79603183,2.4860156,0.3338043,-0.09925084,-0.85191697,1.2907444,-1.8008397,-1.2461947,1.3667521,-0.97389317,-2.2549434,3.1034958,1.9396348,1.5123082,-0.83782667,0.7124225,-1.073522,-2.944822,0.2634539,-1.1947209,-0.64349556,0.6300992,-0.060083903,-1.3469872,-2.5707033,-2.9643385,0.7815106,0
cats/train/cats_00263.jpg,2.3777587,-0.22677311,-2.2584193,0.88136715,0.28718558,1.2782083,2.9772048,0.28476548,-0.12759282,-0.75542575,0.2626034,0.5790002,-2.9316926,1.0241106,-3.1554453,-0.26245362,2.4347343,2.1969917,1.2818387,-2.003426,0.7194628,-0.51021075,-4.2229214,1.254334,-0.04296328,-0.8917928,-0.37967846,-1.875783,-2.0144713,-2.1919465,-2.53792,0.2777954,0
cats/train/cats_00264.jpg,2.126683,-0.7114207,0.051542036,1.7654229,1.008515,0.7718345,0.6866771,-1.2994256,0.5335302,0.113606706,1.2955394,-0.089798726,-0.7071953,0.30983296,-2.6393912,0.16662186,1.7166778,-0.52882767,-1.4258406,-1.5757539,0.78866667,0.89528143,-0.48254913,2.371686,0.03121183,-0.76448727,1.1287351,-0.6622093,-4.998683,2.8103564,1.4287984,1.5542823,0
cats/train/cats_00265.jpg,5.102419,-1.1580911,-2.9547682,2.8582342,-0.2365914,1.2366456,1.3412082,0.09043524,-0.51857024,0.02239368,-0.40436512,4.8354716,-2.463911,1.9454626,-4.131012,1.8688564,2.293578,3.72476,0.25840896,-0.88813335,2.6734943,-1.3609273,-3.469605,2.1591067,-1.2378945,-2.23217,-1.0092568,-4.313979,-3.5759425,-0.83488315,-0.57849085,1.7122313,0
cats/train/cats_00266.jpg,3.1322293,-1.3952749,-2.2446997,1.935583,0.07920325,0.7358925,-0.5035557,-0.7986528,-0.5430632,1.1540085,0.39035982,3.1874692,-0.44246265,2.3655996,-1.477556,-0.91325676,2.9080074,1.1088283,-2.692812,1.1776147,0.27227804,0.6288028,-0.9577369,1.5122039,-1.7322773,-1.0361573,0.76696086,-2.658001,-2.5208645,-1.6481043,0.9296215,2.9621665,0
cats/train/cats_00267.jpg,1.5894654,-2.352508,-3.2555497,0.8474889,2.6335616,2.5949447,2.137577,-0.7825949,-1.308134,2.3115425,2.3510692,1.230965,-0.4298979,2.1383333,-2.251244,-0.57537615,1.691398,2.1958172,-1.3207204,0.868715,1.1560293,1.2601749,-1.6132597,0.7562437,-1.3784899,-1.2580743,-1.2555537,-2.389546,-3.665384,-0.6899038,1.4630969,3.0385535,0
cats/train/cats_00268.jpg,-0.24752274,-0.19450176,-1.4275908,-0.15151739,0.8037704,1.4990623,1.912304,0.4038068,-0.3225761,0.36435148,-1.6352249,-1.1972471,-1.3243574,-0.7746556,-0.007696769,-0.5246559,0.7180379,0.44702,-1.4493816,1.2473629,1.2452295,-0.27855003,-2.1151352,1.1455247,0.3135321,-0.13038525,-0.50984764,-1.795619,-0.8570031,1.6375082,2.4718645,0.44097337,0
cats/train/cats_00269.jpg,0.09556966,0.8196788,-2.2612674,0.77952063,-0.51281476,0.64465034,2.6098921,2.4978054,-0.027194105,-1.0250047,-2.7090175,-1.0450072,-1.527281,0.0036028866,-1.3596501,-0.4421293,1.2651634,-0.3057739,-0.9879597,-0.5786117,-0.6495842,0.29959977,-2.7797213,1.5079331,1.6958984,-0.40624818,1.5824065,-1.2219899,0.39585483,-2.412584,0.7283523,1.428236,0
